{"learner":{"attributes":{"scikit_learn":"{\"_estimator_type\": \"classifier\"}"},"feature_names":[],"feature_types":[],"gradient_booster":{"model":{"gbtree_model_param":{"num_parallel_tree":"1","num_trees":"300"},"iteration_indptr":[0,1,2,3,4,5,6,7,8,9,10,11,12,13,14,15,16,17,18,19,20,21,22,23,24,25,26,27,28,29,30,31,32,33,34,35,36,37,38,39,40,41,42,43,44,45,46,47,48,49,50,51,52,53,54,55,56,57,58,59,60,61,62,63,64,65,66,67,68,69,70,71,72,73,74,75,76,77,78,79,80,81,82,83,84,85,86,87,88,89,90,91,92,93,94,95,96,97,98,99,100,101,102,103,104,105,106,107,108,109,110,111,112,113,114,115,116,117,118,119,120,121,122,123,124,125,126,127,128,129,130,131,132,133,134,135,136,137,138,139,140,141,142,143,144,145,146,147,148,149,150,151,152,153,154,155,156,157,158,159,160,161,162,163,164,165,166,167,168,169,170,171,172,173,174,175,176,177,178,179,180,181,182,183,184,185,186,187,188,189,190,191,192,193,194,195,196,197,198,199,200,201,202,203,204,205,206,207,208,209,210,211,212,213,214,215,216,217,218,219,220,221,222,223,224,225,226,227,228,229,230,231,232,233,234,235,236,237,238,239,240,241,242,243,244,245,246,247,248,249,250,251,252,253,254,255,256,257,258,259,260,261,262,263,264,265,266,267,268,269,270,271,272,273,274,275,276,277,278,279,280,281,282,283,284,285,286,287,288,289,290,291,292,293,294,295,296,297,298,299,300],"tree_info":[0,0,0,0,0,0,0,0,0,0,0,0,0,0,0,0,0,0,0,0,0,0,0,0,0,0,0,0,0,0,0,0,0,0,0,0,0,0,0,0,0,0,0,0,0,0,0,0,0,0,0,0,0,0,0,0,0,0,0,0,0,0,0,0,0,0,0,0,0,0,0,0,0,0,0,0,0,0,0,0,0,0,0,0,0,0,0,0,0,0,0,0,0,0,0,0,0,0,0,0,0,0,0,0,0,0,0,0,0,0,0,0,0,0,0,0,0,0,0,0,0,0,0,0,0,0,0,0,0,0,0,0,0,0,0,0,0,0,0,0,0,0,0,0,0,0,0,0,0,0,0,0,0,0,0,0,0,0,0,0,0,0,0,0,0,0,0,0,0,0,0,0,0,0,0,0,0,0,0,0,0,0,0,0,0,0,0,0,0,0,0,0,0,0,0,0,0,0,0,0,0,0,0,0,0,0,0,0,0,0,0,0,0,0,0,0,0,0,0,0,0,0,0,0,0,0,0,0,0,0,0,0,0,0,0,0,0,0,0,0,0,0,0,0,0,0,0,0,0,0,0,0,0,0,0,0,0,0,0,0,0,0,0,0,0,0,0,0,0,0,0,0,0,0,0,0,0,0,0,0,0,0,0,0,0,0,0,0,0,0,0,0,0,0,0,0,0,0,0,0],"trees":[{"base_weights":[-4.703175E-2,1.8743137E-1,-1.8340575E0,-2.0310032E0,1.55134E-1,2.6152505E-2,-2.0892277E-1],"categories":[],"categories_nodes":[],"categories_segments":[],"categories_sizes":[],"default_left":[0,0,0,0,0,0,0],"id":0,"left_children":[1,-1,3,5,-1,-1,-1],"loss_changes":[5.9312695E2,0E0,6.281659E1,1.1892548E1,0E0,0E0,0E0],"parents":[2147483647,0,0,2,2,3,3],"right_children":[2,-1,4,6,-1,-1,-1],"split_conditions":[2.00001E0,1.8743137E-1,8.704434E-1,2.042619E-1,1.55134E-1,2.6152505E-2,-2.0892277E-1],"split_indices":[1601,0,1572,582,0,0,0],"split_type":[0,0,0,0,0,0,0],"sum_hessian":[1.7074617E2,8.225728E1,8.848889E1,8.400213E1,4.4867606E0,1.9941158E0,8.200801E1],"tree_param":{"num_deleted":"0","num_feature":"2425","num_nodes":"7","size_leaf_vector":"1"}},{"base_weights":[-3.546787E-2,1.7232923E-1,-1.6591365E0,-1.8086579E0,3.6487994E-1,1.1223247E-1,-1.8737052E-1,-1.2686248E-1,1.2388807E-1],"categories":[],"categories_nodes":[],"categories_segments":[],"categories_sizes":[],"default_left":[0,0,0,0,0,0,0,0,0],"id":1,"left_children":[1,-1,3,5,7,-1,-1,-1,-1],"loss_changes":[5.0644785E2,0E0,2.8564392E1,1.850476E1,1.1815441E1,0E0,0E0,0E0,0E0],"parents":[2147483647,0,0,2,2,3,3,4,4],"right_children":[2,-1,4,6,8,-1,-1,-1,-1],"split_conditions":[2.00001E0,1.7232923E-1,9.008332E-1,1.3386688E-1,3.1127572E-1,1.1223247E-1,-1.8737052E-1,-1.2686248E-1,1.2388807E-1],"split_indices":[1601,0,1592,582,1588,0,0,0,0],"split_type":[0,0,0,0,0,0,0,0,0],"sum_hessian":[1.7534856E2,8.414318E1,9.120537E1,8.503028E1,6.1750927E0,1.4932125E0,8.353706E1,1.9949751E0,4.1801176E0],"tree_param":{"num_deleted":"0","num_feature":"2425","num_nodes":"9","size_leaf_vector":"1"}},{"base_weights":[1.5034919E-2,1.6066478E-1,-1.4706258E0,-1.6489935E0,1.3900857E-1,1.0452082E-1,-1.7012621E0,1.2132478E-3,-1.7320703E-1],"categories":[],"categories_nodes":[],"categories_segments":[],"categories_sizes":[],"default_left":[0,0,0,0,0,0,0,0,0],"id":2,"left_children":[1,-1,3,5,-1,-1,7,-1,-1],"loss_changes":[4.1081192E2,0E0,4.8145844E1,1.3754578E1,0E0,0E0,4.4450073E0,0E0,0E0],"parents":[2147483647,0,0,2,2,3,3,6,6],"right_children":[2,-1,4,6,-1,-1,8,-1,-1],"split_conditions":[2.00001E0,1.6066478E-1,8.704434E-1,3.408332E-1,1.3900857E-1,1.0452082E-1,6.684027E-2,1.2132478E-3,-1.7320703E-1],"split_indices":[1601,0,1572,2345,0,0,981,0,0],"split_type":[0,0,0,0,0,0,0,0,0],"sum_hessian":[1.7173521E2,8.287182E1,8.886339E1,8.4046585E1,4.816802E0,1.2379719E0,8.280862E1,1.4733701E0,8.133524E1],"tree_param":{"num_deleted":"0","num_feature":"2425","num_nodes":"9","size_leaf_vector":"1"}},{"base_weights":[1.4833942E-2,1.4876571E0,-7.931186E-1,1.5159667E-1,3.7203399E-3,-1.2944906E0,1.4677624E-1,8.3661E-2,-1.3591509E0,9.406554E-2,-1.4122709E0,1.2514534E-2,-1.4345539E0,-1.4564661E0,-1.916488E-2,-1.471402E0,-2.1469025E-2,-5.6493443E-2,-1.4854956E-1],"categories":[],"categories_nodes":[],"categories_segments":[],"categories_sizes":[],"default_left":[0,1,0,0,0,0,0,0,0,0,0,0,1,1,0,0,0,0,0],"id":3,"left_children":[1,3,5,-1,-1,7,-1,-1,9,-1,11,-1,13,15,-1,17,-1,-1,-1],"loss_changes":[2.0211354E2,2.414032E0,1.2624038E2,0E0,0E0,1.35820465E1,0E0,0E0,1.2083298E1,0E0,3.141037E0,0E0,2.0437775E0,1.2358246E0,0E0,2.1473694E-1,0E0,0E0,0E0],"parents":[2147483647,0,0,1,1,2,2,5,5,8,8,10,10,12,12,13,13,15,15],"right_children":[2,4,6,-1,-1,8,-1,-1,10,-1,12,-1,14,16,-1,18,-1,-1,-1],"split_conditions":[1.2987348E0,1.585178E-1,8.704434E-1,1.5159667E-1,3.7203399E-3,2.791344E-1,1.4677624E-1,8.3661E-2,2.4280816E-1,9.406554E-2,2.9758334E-1,1.2514534E-2,1.833147E-1,3.2646427E-1,-1.916488E-2,7.831396E-2,-2.1469025E-2,-5.6493443E-2,-1.4854956E-1],"split_indices":[582,945,1572,0,0,983,0,0,1637,0,1391,0,1256,830,0,1682,0,0,0],"split_type":[0,0,0,0,0,0,0,0,0,0,0,0,0,0,0,0,0,0,0],"sum_hessian":[1.6785591E2,5.9164043E1,1.0869187E2,5.79871E1,1.1769449E0,8.931325E1,1.9378626E1,2.278515E0,8.703473E1,1.587706E0,8.544702E1,1.1548032E0,8.429222E1,8.266306E1,1.6291609E0,8.1497894E1,1.1651669E0,1.8767035E0,7.962119E1],"tree_param":{"num_deleted":"0","num_feature":"2425","num_nodes":"19","size_leaf_vector":"1"}},{"base_weights":[1.4844015E-2,1.4508529E-1,-1.3030434E0,1.0831394E-1,-1.4608597E0,6.8679295E-2,-1.5103328E0,-1.06349895E-2,-1.530594E-1],"categories":[],"categories_nodes":[],"categories_segments":[],"categories_sizes":[],"default_left":[0,0,1,0,0,0,0,0,0],"id":4,"left_children":[1,-1,3,-1,5,-1,7,-1,-1],"loss_changes":[3.0096332E2,0E0,3.28125E1,0E0,9.347443E0,0E0,2.0208893E0,0E0,0E0],"parents":[2147483647,0,0,2,2,4,4,6,6],"right_children":[2,-1,4,-1,6,-1,8,-1,-1],"split_conditions":[2.00001E0,1.4508529E-1,2.0010734E-2,1.0831394E-1,4.3651494E-1,6.8679295E-2,1.22267604E-1,-1.06349895E-2,-1.530594E-1],"split_indices":[1601,0,1572,0,656,0,1240,0,0],"split_type":[0,0,0,0,0,0,0,0,0],"sum_hessian":[1.5703072E2,7.509936E1,8.1931366E1,4.7188635E0,7.72125E1,1.4485404E0,7.576396E1,1.1667048E0,7.459725E1],"tree_param":{"num_deleted":"0","num_feature":"2425","num_nodes":"9","size_leaf_vector":"1"}},{"base_weights":[-1.315353E-2,1.3864559E-1,-1.2306536E0,1.0257488E0,-1.375224E0,1.145482E-1,2.7387863E-2,4.8132345E-1,-1.4405278E0,9.578739E-2,-2.1993952E-2,-3.5655905E-2,-1.4521681E-1],"categories":[],"categories_nodes":[],"categories_segments":[],"categories_sizes":[],"default_left":[0,0,1,1,0,0,0,0,0,0,0,0,0],"id":5,"left_children":[1,-1,3,5,7,-1,-1,9,11,-1,-1,-1,-1],"loss_changes":[2.6336533E2,0E0,2.837146E1,1.8584919E-1,1.0162155E1,0E0,0E0,1.3480312E0,4.3733215E-1,0E0,0E0,0E0,0E0],"parents":[2147483647,0,0,2,2,3,3,4,4,7,7,8,8],"right_children":[2,-1,4,6,8,-1,-1,10,12,-1,-1,-1,-1],"split_conditions":[2.00001E0,1.3864559E-1,2.4718601E-2,1.3766642E-1,2.042619E-1,1.145482E-1,2.7387863E-2,7.9055004E-2,4.298534E-1,9.578739E-2,-2.1993952E-2,-3.5655905E-2,-1.4521681E-1],"split_indices":[1601,0,1572,1682,582,0,0,1196,1683,0,0,0,0],"split_type":[0,0,0,0,0,0,0,0,0,0,0,0,0],"sum_hessian":[1.525536E2,7.0904594E1,8.164902E1,4.5493402E0,7.709968E1,3.4727972E0,1.076543E0,2.4033523E0,7.469632E1,1.2130708E0,1.1902815E0,1.1296762E0,7.356664E1],"tree_param":{"num_deleted":"0","num_feature":"2425","num_nodes":"13","size_leaf_vector":"1"}},{"base_weights":[4.7495846E-2,1.3344742E-1,-1.1625972E0,9.806533E-1,-1.3169518E0,1.0973374E-1,2.611486E-2,9.7596206E-2,-1.3731092E0,-8.009813E-3,-1.3934924E-1],"categories":[],"categories_nodes":[],"categories_segments":[],"categories_sizes":[],"default_left":[0,0,1,1,0,0,0,0,0,0,0],"id":6,"left_children":[1,-1,3,5,7,-1,-1,-1,9,-1,-1],"loss_changes":[2.169126E2,0E0,2.5046425E1,1.6654968E-1,1.0019974E1,0E0,0E0,0E0,1.6334534E0,0E0,0E0],"parents":[2147483647,0,0,2,2,3,3,4,4,8,8],"right_children":[2,-1,4,6,8,-1,-1,-1,10,-1,-1],"split_conditions":[2.00001E0,1.3344742E-1,2.0010734E-2,1.0276504E-1,3.408332E-1,1.0973374E-1,2.611486E-2,9.7596206E-2,1.4088659E-1,-8.009813E-3,-1.3934924E-1],"split_indices":[1601,0,1572,1753,2345,0,0,0,1832,0,0],"split_type":[0,0,0,0,0,0,0,0,0,0,0],"sum_hessian":[1.372857E2,6.6479515E1,7.08062E1,4.3971705E0,6.640903E1,3.3317266E0,1.065444E0,1.1960305E0,6.5213E1,1.0885706E0,6.412443E1],"tree_param":{"num_deleted":"0","num_feature":"2425","num_nodes":"11","size_leaf_vector":"1"}},{"base_weights":[4.7231253E-2,1.2908728E-1,-1.1534427E0,4.492132E-1,-1.2917958E0,1.0932674E-1,-8.598783E-2,1.958395E-2,-1.3228858E0,-1.3367777E-1,-2.424931E-2],"categories":[],"categories_nodes":[],"categories_segments":[],"categories_sizes":[],"default_left":[0,0,1,1,0,0,0,0,1,0,0],"id":7,"left_children":[1,-1,3,5,7,-1,-1,-1,9,-1,-1],"loss_changes":[2.0254477E2,0E0,1.5887581E1,6.1910634E0,3.2101593E0,0E0,0E0,0E0,6.1582947E-1,0E0,0E0],"parents":[2147483647,0,0,2,2,3,3,4,4,8,8],"right_children":[2,-1,4,6,8,-1,-1,-1,10,-1,-1],"split_conditions":[2.00001E0,1.2908728E-1,1.852204E-2,7.168731E-2,1.4559273E-1,1.0932674E-1,-8.598783E-2,1.958395E-2,4.1742423E-1,-1.3367777E-1,-2.424931E-2],"split_indices":[1601,0,1592,1170,582,0,0,0,706,0,0],"split_type":[0,0,0,0,0,0,0,0,0,0,0],"sum_hessian":[1.3364688E2,6.561188E1,6.8034996E1,5.2279983E0,6.2807E1,3.614555E0,1.6134435E0,1.1772449E0,6.1629757E1,6.061308E1,1.0166758E0],"tree_param":{"num_deleted":"0","num_feature":"2425","num_nodes":"11","size_leaf_vector":"1"}},{"base_weights":[3.4727205E-2,1.2509115E-1,-1.0867872E0,9.784686E-2,-1.1520296E0,3.1467628E-2,-1.1958817E0,-2.2464821E-2,-1.2139284E-1],"categories":[],"categories_nodes":[],"categories_segments":[],"categories_sizes":[],"default_left":[0,0,0,0,0,0,0,0,0],"id":8,"left_children":[1,-1,3,-1,5,-1,7,-1,-1],"loss_changes":[1.7069376E2,0E0,9.902061E0,0E0,4.4661713E0,0E0,8.131256E-1,0E0,0E0],"parents":[2147483647,0,0,2,2,4,4,6,6],"right_children":[2,-1,4,-1,6,-1,8,-1,-1],"split_conditions":[2.00001E0,1.2509115E-1,6.518368E-1,9.784686E-2,9.13021E-2,3.1467628E-2,4.155486E-2,-2.2464821E-2,-1.2139284E-1],"split_indices":[1601,0,656,0,1256,0,1196,0,0],"split_type":[0,0,0,0,0,0,0,0,0],"sum_hessian":[1.2314826E2,5.9025208E1,6.4123055E1,1.5350034E0,6.258805E1,1.6376642E0,6.095039E1,1.357192E0,5.9593197E1],"tree_param":{"num_deleted":"0","num_feature":"2425","num_nodes":"9","size_leaf_vector":"1"}},{"base_weights":[4.5045234E-2,1.21916965E-1,-1.0325508E0,8.542764E-1,-1.1644478E0,2.1323295E-2,9.7779416E-2,1.0206244E-1,-1.2380112E0,-3.5594385E-2,-1.2596236E-1],"categories":[],"categories_nodes":[],"categories_segments":[],"categories_sizes":[],"default_left":[0,0,1,0,0,0,0,0,0,0,0],"id":9,"left_children":[1,-1,3,5,7,-1,-1,-1,9,-1,-1],"loss_changes":[1.4752246E2,0E0,1.6130943E1,1.5182209E-1,1.046917E1,0E0,0E0,0E0,6.164627E-1,0E0,0E0],"parents":[2147483647,0,0,2,2,3,3,4,4,8,8],"right_children":[2,-1,4,6,8,-1,-1,-1,10,-1,-1],"split_conditions":[2.00001E0,1.21916965E-1,2.0010734E-2,1.586083E0,3.408332E-1,2.1323295E-2,9.7779416E-2,1.0206244E-1,4.5364086E-2,-3.5594385E-2,-1.2596236E-1],"split_indices":[1601,0,1572,1753,2345,0,0,0,1196,0,0],"split_type":[0,0,0,0,0,0,0,0,0,0,0],"sum_hessian":[1.1460223E2,5.4781815E1,5.982041E1,3.5506346E0,5.6269775E1,1.0140678E0,2.536567E0,1.4133925E0,5.4856384E1,1.7297322E0,5.312665E1],"tree_param":{"num_deleted":"0","num_feature":"2425","num_nodes":"11","size_leaf_vector":"1"}},{"base_weights":[3.593597E-2,1.1895815E-1,-9.5895326E-1,6.417204E-1,-1.1256541E0,1.07934676E-1,-5.1109117E-2,9.725712E-2,-1.1991172E0,-9.185473E-3,-1.2218397E-1],"categories":[],"categories_nodes":[],"categories_segments":[],"categories_sizes":[],"default_left":[0,0,1,1,0,0,0,0,0,0,0],"id":10,"left_children":[1,-1,3,5,7,-1,-1,-1,9,-1,-1],"loss_changes":[1.2702816E2,0E0,1.6584785E1,3.7017505E0,9.521164E0,0E0,0E0,0E0,1.216629E0,0E0,0E0],"parents":[2147483647,0,0,2,2,3,3,4,4,8,8],"right_children":[2,-1,4,6,8,-1,-1,-1,10,-1,-1],"split_conditions":[2.00001E0,1.1895815E-1,2.0565744E-2,7.168731E-2,3.408332E-1,1.07934676E-1,-5.1109117E-2,9.725712E-2,6.684027E-2,-9.185473E-3,-1.2218397E-1],"split_indices":[1601,0,1592,1170,2345,0,0,0,981,0,0],"split_type":[0,0,0,0,0,0,0,0,0,0,0],"sum_hessian":[1.0868195E2,5.023508E1,5.8446877E1,5.244007E0,5.3202866E1,3.847253E0,1.3967541E0,1.3857125E0,5.1817154E1,1.1433698E0,5.0673786E1],"tree_param":{"num_deleted":"0","num_feature":"2425","num_nodes":"11","size_leaf_vector":"1"}},{"base_weights":[3.4528844E-2,1.16489746E-1,-9.4236594E-1,1.06555715E-1,-1.0602974E0,-1.1499205E0,8.6126E-2,3.1128008E-2,-1.1859311E0,-6.275753E-3,-1.20749705E-1],"categories":[],"categories_nodes":[],"categories_segments":[],"categories_sizes":[],"default_left":[0,0,0,0,1,0,0,0,0,0,0],"id":11,"left_children":[1,-1,3,-1,5,7,-1,-1,9,-1,-1],"loss_changes":[1.1553623E2,0E0,1.4424538E1,0E0,1.0209206E1,3.0828857E0,0E0,0E0,1.1484299E0,0E0,0E0],"parents":[2147483647,0,0,2,2,4,4,5,5,8,8],"right_children":[2,-1,4,-1,6,8,-1,-1,10,-1,-1],"split_conditions":[2.00001E0,1.16489746E-1,6.241662E-1,1.06555715E-1,1E0,6.2102303E-2,8.6126E-2,3.1128008E-2,9.360373E-2,-6.275753E-3,-1.20749705E-1],"split_indices":[1601,0,2345,0,1544,981,0,0,231,0,0],"split_type":[0,0,0,0,0,0,0,0,0,0,0],"sum_hessian":[1.0263446E2,4.7490536E1,5.5143925E1,2.613338E0,5.2530586E1,5.0573368E1,1.9572182E0,1.032526E0,4.954084E1,1.0069652E0,4.853388E1],"tree_param":{"num_deleted":"0","num_feature":"2425","num_nodes":"11","size_leaf_vector":"1"}},{"base_weights":[-4.066009E-3,1.14268E-1,-9.8708755E-1,-1.0949472E0,6.962242E-2,5.2125645E-3,-1.1396258E0,-1.6016243E-2,-1.1596584E-1],"categories":[],"categories_nodes":[],"categories_segments":[],"categories_sizes":[],"default_left":[0,0,0,0,0,0,0,0,0],"id":12,"left_children":[1,-1,3,5,-1,-1,7,-1,-1],"loss_changes":[1.10809044E2,0E0,1.0371483E1,2.6283798E0,0E0,0E0,7.618065E-1,0E0,0E0],"parents":[2147483647,0,0,2,2,3,3,6,6],"right_children":[2,-1,4,6,-1,-1,8,-1,-1],"split_conditions":[2.00001E0,1.14268E-1,8.704434E-1,5.7487395E-2,6.962242E-2,5.2125645E-3,1.0644081E-1,-1.6016243E-2,-1.1596584E-1],"split_indices":[1601,0,1572,1753,0,0,1256,0,0],"split_type":[0,0,0,0,0,0,0,0,0],"sum_hessian":[9.629749E1,4.437238E1,5.192511E1,4.9126797E1,2.7983131E0,1.8355057E0,4.729129E1,1.1281378E0,4.6163155E1],"tree_param":{"num_deleted":"0","num_feature":"2425","num_nodes":"9","size_leaf_vector":"1"}},{"base_weights":[4.02732E-3,6.101433E-1,-1.0801727E0,8.205837E-1,-4.9239907E-1,-1.1106177E-1,-1.6021078E-2,8.928814E-1,-7.49776E-2,5.033992E-2,-7.394886E-1,9.543448E-1,-5.1362377E-2,-3.0579356E-2,-8.2840614E-2,1.0046848E0,-3.4002494E-2,1.0281521E0,9.1536995E-3,4.480303E-2,-4.8709955E-2,1.0462532E0,1.6450861E-2,1.0667857E-1,3.266941E-2],"categories":[],"categories_nodes":[],"categories_segments":[],"categories_sizes":[],"default_left":[1,1,0,1,0,0,0,1,0,0,1,1,0,0,0,1,0,1,0,0,0,1,0,0,0],"id":13,"left_children":[1,3,5,7,9,-1,-1,11,-1,-1,13,15,-1,-1,-1,17,19,21,-1,-1,-1,23,-1,-1,-1],"loss_changes":[5.802385E1,1.35434265E1,7.0887756E-1,6.111004E0,2.7593293E0,0E0,0E0,4.4906616E0,0E0,0E0,6.204176E-2,2.257557E0,0E0,0E0,0E0,8.1780624E-1,9.02525E-1,4.7494125E-1,0E0,0E0,0E0,2.4771118E-1,0E0,0E0,0E0],"parents":[2147483647,0,0,1,1,2,2,3,3,4,4,7,7,10,10,11,11,15,15,16,16,17,17,21,21],"right_children":[2,4,6,8,10,-1,-1,12,-1,-1,14,16,-1,-1,-1,18,20,22,-1,-1,-1,24,-1,-1,-1],"split_conditions":[4.976341E-2,7.697876E-2,2.5262985E-1,1.13722734E-1,3.0198434E-1,-1.1106177E-1,-1.6021078E-2,2.0998867E-1,-7.49776E-2,5.033992E-2,8.769359E-2,2.5561523E-1,-5.1362377E-2,-3.0579356E-2,-8.2840614E-2,1.912337E-1,2.1502791E-1,2.305791E-1,9.1536995E-3,4.480303E-2,-4.8709955E-2,8.073525E-2,1.6450861E-2,1.0667857E-1,3.266941E-2],"split_indices":[409,861,1572,475,983,0,0,1694,0,0,1572,1572,0,0,0,893,1117,2389,0,0,0,1694,0,0,0],"split_type":[0,0,0,0,0,0,0,0,0,0,0,0,0,0,0,0,0,0,0,0,0,0,0,0,0],"sum_hessian":[8.629316E1,5.563049E1,3.0662674E1,4.692897E1,8.701516E0,2.9479834E1,1.1828411E0,4.527593E1,1.6530409E0,1.5236647E0,7.1778517E0,4.368826E1,1.5876709E0,1.9765083E0,5.2013435E0,4.1555176E1,2.1330843E0,4.0391205E1,1.1639698E0,1.0389584E0,1.094126E0,3.9354927E1,1.0362782E0,3.7793926E1,1.560999E0],"tree_param":{"num_deleted":"0","num_feature":"2425","num_nodes":"25","size_leaf_vector":"1"}},{"base_weights":[2.5058864E-2,1.1086541E-1,-8.9673096E-1,7.485391E-1,-1.0454806E0,8.704047E-2,1.9182898E-2,8.393429E-2,-1.1320903E-1],"categories":[],"categories_nodes":[],"categories_segments":[],"categories_sizes":[],"default_left":[0,0,1,1,0,0,0,0,0],"id":14,"left_children":[1,-1,3,5,7,-1,-1,-1,-1],"loss_changes":[8.450225E1,0E0,1.1973724E1,1.297965E-1,7.864193E0,0E0,0E0,0E0,0E0],"parents":[2147483647,0,0,2,2,3,3,4,4],"right_children":[2,-1,4,6,8,-1,-1,-1,-1],"split_conditions":[2.00001E0,1.1086541E-1,2.4718601E-2,1.8108858E-1,1.3386688E-1,8.704047E-2,1.9182898E-2,8.393429E-2,-1.1320903E-1],"split_indices":[1601,0,1572,1682,582,0,0,0,0],"split_type":[0,0,0,0,0,0,0,0,0],"sum_hessian":[8.2604485E1,3.787657E1,4.472791E1,3.374252E0,4.135366E1,2.3059857E0,1.0682664E0,1.434943E0,3.9918716E1],"tree_param":{"num_deleted":"0","num_feature":"2425","num_nodes":"9","size_leaf_vector":"1"}},{"base_weights":[3.8275316E-2,5.900089E-1,-1.029749E0,7.5469905E-1,-3.5205898E-1,-1.05518006E-1,-2.2889763E-2,8.6522907E-1,-1.634679E-1,3.0297626E-2,-4.968977E-1,9.063409E-1,-2.7416745E-2,6.1476428E-2,-6.398698E-1,1.3106308E-2,-7.110412E-1,9.722297E-1,1.8497114E-1,-7.4606925E-2,-1.9053867E-2,-1.9463684E-2,-8.090015E-2,9.9956495E-1,7.857502E-3,6.8391494E-2,-3.2313492E-2,1.0254719E0,1.4764977E-2,1.04279555E-1,2.593931E-2],"categories":[],"categories_nodes":[],"categories_segments":[],"categories_sizes":[],"default_left":[1,1,0,1,0,0,0,1,1,0,0,1,0,0,0,0,0,1,0,0,0,0,0,1,0,0,0,1,0,0,0],"id":15,"left_children":[1,3,5,7,9,-1,-1,11,13,-1,15,17,-1,-1,19,-1,21,23,25,-1,-1,-1,-1,27,-1,-1,-1,29,-1,-1,-1],"loss_changes":[4.457605E1,7.9976215E0,2.8352928E-1,4.4786797E0,9.1880465E-1,0E0,0E0,2.0427818E0,2.4077065E0,0E0,1.0358657E0,1.5884266E0,0E0,0E0,4.2043447E-2,0E0,1.1485386E-1,7.4845886E-1,1.3234423E0,0E0,0E0,0E0,0E0,5.717163E-1,0E0,0E0,0E0,1.4926147E-1,0E0,0E0,0E0],"parents":[2147483647,0,0,1,1,2,2,3,3,4,4,7,7,8,8,10,10,11,11,14,14,16,16,17,17,18,18,23,23,27,27],"right_children":[2,4,6,8,10,-1,-1,12,14,-1,16,18,-1,-1,20,-1,22,24,26,-1,-1,-1,-1,28,-1,-1,-1,30,-1,-1,-1],"split_conditions":[5.4791864E-2,8.4818475E-2,4.3357E-1,1.9277455E-1,6.424545E-2,-1.05518006E-1,-2.2889763E-2,2.9132196E-1,6.8544336E-2,3.0297626E-2,2.057815E-1,9.652909E-2,-2.7416745E-2,6.1476428E-2,3.0112725E-1,1.3106308E-2,2.390757E-1,1.4142272E-1,1.9140929E-1,-7.4606925E-2,-1.9053867E-2,-1.9463684E-2,-8.090015E-2,5.163046E-1,7.857502E-3,6.8391494E-2,-3.2313492E-2,1.3233505E-1,1.4764977E-2,1.04279555E-1,2.593931E-2],"split_indices":[409,861,1682,231,1117,0,0,1751,1753,0,1682,920,0,0,1682,0,125,1254,1789,0,0,0,0,1682,0,0,0,893,0,0,0],"split_type":[0,0,0,0,0,0,0,0,0,0,0,0,0,0,0,0,0,0,0,0,0,0,0,0,0,0,0,0,0,0,0],"sum_hessian":[7.361584E1,4.8835392E1,2.4780441E1,4.173778E1,7.097611E0,2.3709955E1,1.0704846E0,3.730466E1,4.4331236E0,1.0875106E0,6.0101004E0,3.6202927E1,1.101734E0,1.5730373E0,2.8600862E0,1.6270009E0,4.3830996E0,3.285431E1,3.3486176E0,1.7791777E0,1.0809084E0,1.1751432E0,3.2079563E0,3.1764185E1,1.0901216E0,1.5149637E0,1.8336537E0,3.0629025E1,1.1351604E0,2.959849E1,1.0305363E0],"tree_param":{"num_deleted":"0","num_feature":"2425","num_nodes":"31","size_leaf_vector":"1"}},{"base_weights":[3.66478E-2,5.7014126E-1,-1.0133561E0,1.0698449E-1,4.6372563E-2,-6.114358E-4,-1.058975E-1,-6.58358E-2,3.3838204E-1,5.7243544E-1,-4.4273395E-2,8.0305713E-1,-5.5928726E-2,8.834552E-2,8.3797314E-4],"categories":[],"categories_nodes":[],"categories_segments":[],"categories_sizes":[],"default_left":[1,0,0,0,0,0,0,0,1,1,0,1,0,0,0],"id":16,"left_children":[1,3,5,-1,7,-1,-1,-1,9,11,-1,13,-1,-1,-1],"loss_changes":[4.18407E1,1.2901852E1,1.1504021E0,0E0,5.4097977E0,0E0,0E0,0E0,3.6323338E0,4.274569E0,0E0,7.9673576E-1,0E0,0E0,0E0],"parents":[2147483647,0,0,1,1,2,2,4,4,8,8,9,9,11,11],"right_children":[2,4,6,-1,8,-1,-1,-1,10,12,-1,14,-1,-1,-1],"split_conditions":[4.976341E-2,6.493624E-1,2.3562485E-1,1.0698449E-1,9.8947877E-1,-6.114358E-4,-1.058975E-1,-6.58358E-2,9.6322E-2,1.8192755E-1,-4.4273395E-2,1.3664058E-1,-5.5928726E-2,8.834552E-2,8.3797314E-4],"split_indices":[409,582,582,0,1720,0,0,0,231,1751,0,1117,0,0,0],"split_type":[0,0,0,0,0,0,0,0,0,0,0,0,0,0,0],"sum_hessian":[7.266144E1,4.8484234E1,2.4177206E1,2.4278574E1,2.4205658E1,1.0967002E0,2.3080505E1,6.7238536E0,1.7481806E1,1.3656832E1,3.8249733E0,1.1586213E1,2.0706186E0,1.0420272E1,1.1659417E0],"tree_param":{"num_deleted":"0","num_feature":"2425","num_nodes":"15","size_leaf_vector":"1"}},{"base_weights":[3.5738315E-2,1.0057224E0,-4.8149222E-1,1.0713043E-1,3.2597163E-1,-8.097218E-1,8.958309E-1,-2.625133E-2,6.6984236E-2,7.193439E-2,-8.879881E-1,9.8188035E-2,1.0006011E-2,-2.1032402E-1,-9.2636055E-1,-4.0545646E-2,7.860356E-3,-9.446167E-1,-1.8600518E-2,-9.678206E-1,-2.6798928E-2,-9.854355E-2,-2.4358189E-2],"categories":[],"categories_nodes":[],"categories_segments":[],"categories_sizes":[],"default_left":[0,1,0,0,0,0,1,0,0,0,0,0,0,0,1,0,0,1,0,0,0,0,0],"id":17,"left_children":[1,3,5,-1,7,9,11,-1,-1,-1,13,-1,-1,15,17,-1,-1,19,-1,21,-1,-1,-1],"loss_changes":[3.4772488E1,7.2481346E-1,2.118229E1,0E0,8.956983E-1,5.0748196E0,5.305767E-1,0E0,0E0,0E0,7.337589E-1,0E0,0E0,2.1270348E-1,2.771206E-1,0E0,0E0,2.5013542E-1,0E0,1.5534782E-1,0E0,0E0,0E0],"parents":[2147483647,0,0,1,1,2,2,4,4,5,5,6,6,10,10,13,13,14,14,17,17,19,19],"right_children":[2,4,6,-1,8,10,12,-1,-1,-1,14,-1,-1,16,18,-1,-1,20,-1,22,-1,-1,-1],"split_conditions":[1.2987348E0,4.974389E-2,8.704434E-1,1.0713043E-1,1.1962796E-1,1.3036836E0,2.1065916E-1,-2.625133E-2,6.6984236E-2,7.193439E-2,2.2138892E-1,9.8188035E-2,1.0006011E-2,2.9921803E-1,1.4033155E-1,-4.0545646E-2,7.860356E-3,2.0701934E-1,-1.8600518E-2,9.008332E-1,-2.6798928E-2,-9.854355E-2,-2.4358189E-2],"split_indices":[582,1221,1572,0,1751,656,1682,0,0,0,1256,0,0,1753,1111,0,0,1170,0,1592,0,0,0],"split_type":[0,0,0,0,0,0,0,0,0,0,0,0,0,0,0,0,0,0,0,0,0,0,0],"sum_hessian":[6.734337E1,2.3092535E1,4.4250835E1,2.053528E1,2.5572546E0,3.6067665E1,8.183172E0,1.0304247E0,1.5268297E0,1.3574082E0,3.4710255E1,7.173593E0,1.0095791E0,2.2074482E0,3.2502808E1,1.0768577E0,1.1305904E0,3.1451365E1,1.0514425E0,2.9992458E1,1.4589068E0,2.8928219E1,1.0642391E0],"tree_param":{"num_deleted":"0","num_feature":"2425","num_nodes":"23","size_leaf_vector":"1"}},{"base_weights":[3.48179E-2,1.0640549E-1,-8.596945E-1,2.8468013E-1,-1.0130005E0,6.054782E-1,-4.2384513E-2,1.1693268E-2,-1.0593297E0,7.198554E-2,1.6939012E-2,-1.0816188E-1,-2.783815E-2],"categories":[],"categories_nodes":[],"categories_segments":[],"categories_sizes":[],"default_left":[0,0,1,1,0,1,0,0,1,0,0,0,0],"id":18,"left_children":[1,-1,3,5,7,9,-1,-1,11,-1,-1,-1,-1],"loss_changes":[5.8656425E1,0E0,6.272253E0,1.3499291E0,1.7099266E0,6.37486E-2,0E0,0E0,2.0724106E-1,0E0,0E0,0E0,0E0],"parents":[2147483647,0,0,2,2,3,3,4,4,5,5,8,8],"right_children":[2,-1,4,6,8,10,-1,-1,12,-1,-1,-1,-1],"split_conditions":[2.00001E0,1.0640549E-1,2.0565744E-2,7.168731E-2,4.5364086E-2,1.24192625E-1,-4.2384513E-2,1.1693268E-2,1.4909972E-1,7.198554E-2,1.6939012E-2,-1.0816188E-1,-2.783815E-2],"split_indices":[1601,0,1592,1170,1196,1682,0,0,1,0,0,0,0],"split_type":[0,0,0,0,0,0,0,0,0,0,0,0,0],"sum_hessian":[6.171733E1,2.8609432E1,3.31079E1,3.8100796E0,2.9297821E1,2.7227445E0,1.087335E0,1.0939229E0,2.8203897E1,1.6415007E0,1.0812439E0,2.7046942E1,1.1569549E0],"tree_param":{"num_deleted":"0","num_feature":"2425","num_nodes":"13","size_leaf_vector":"1"}},{"base_weights":[2.5176103E-3,1.0478156E-1,-8.6661404E-1,8.073146E-2,-9.725521E-1,3.3783313E-2,-1.0540913E0,-3.1053612E-2,-1.0703204E-1],"categories":[],"categories_nodes":[],"categories_segments":[],"categories_sizes":[],"default_left":[0,0,0,0,1,0,0,0,0],"id":19,"left_children":[1,-1,3,-1,5,-1,7,-1,-1],"loss_changes":[5.3389503E1,0E0,6.47554E0,0E0,3.6291084E0,0E0,1.8547058E-2,0E0,0E0],"parents":[2147483647,0,0,2,2,4,4,6,6],"right_children":[2,-1,4,-1,6,-1,8,-1,-1],"split_conditions":[2.00001E0,1.0478156E-1,3.2437658E-1,8.073146E-2,2.0010734E-2,3.3783313E-2,3.400196E-1,-3.1053612E-2,-1.0703204E-1],"split_indices":[1601,0,2345,0,1572,0,1591,0,0],"split_type":[0,0,0,0,0,0,0,0,0],"sum_hessian":[5.676705E1,2.567833E1,3.108872E1,1.4563468E0,2.9632374E1,1.5517423E0,2.8080631E1,1.0298779E0,2.7050755E1],"tree_param":{"num_deleted":"0","num_feature":"2425","num_nodes":"9","size_leaf_vector":"1"}},{"base_weights":[9.420271E-3,5.40821E-1,-9.8034495E-1,6.7494255E-1,-5.646349E-1,-1.0065339E-1,-2.6485104E-2,7.5464773E-1,-3.042908E-1,-1.0189221E-2,-6.741824E-2,8.1531686E-1,-3.0805526E-2,-3.3822947E-3,-4.154801E-2,8.6744833E-1,1.8072209E-1,9.020206E-1,1.1201133E-4,-2.4716942E-2,4.75655E-2,9.371291E-1,1.8317733E-2,9.587052E-2,2.2676906E-2],"categories":[],"categories_nodes":[],"categories_segments":[],"categories_sizes":[],"default_left":[1,1,0,1,1,0,0,1,0,0,0,1,0,0,0,1,0,1,0,0,0,1,0,0,0],"id":20,"left_children":[1,3,5,7,9,-1,-1,11,13,-1,-1,15,-1,-1,-1,17,19,21,-1,-1,-1,23,-1,-1,-1],"loss_changes":[2.88677E1,5.6742487E0,9.275818E-2,2.7501183E0,1.547209E-1,0E0,0E0,2.1950302E0,8.047682E-2,0E0,0E0,7.95866E-1,0E0,0E0,0E0,7.880974E-1,5.52847E-1,4.6771622E-1,0E0,0E0,0E0,1.4908409E-1,0E0,0E0,0E0],"parents":[2147483647,0,0,1,1,2,2,3,3,4,4,7,7,8,8,11,11,15,15,16,16,17,17,21,21],"right_children":[2,4,6,8,10,-1,-1,12,14,-1,-1,16,-1,-1,-1,18,20,22,-1,-1,-1,24,-1,-1,-1],"split_conditions":[4.976341E-2,1.1453384E-1,2.501996E-1,1.8350564E-1,7.05309E-2,-1.0065339E-1,-2.6485104E-2,1.9532152E-1,1.1667216E-1,-1.0189221E-2,-6.741824E-2,8.042981E-2,-3.0805526E-2,-3.3822947E-3,-4.154801E-2,6.062026E-2,1.1505656E-1,2.2103672E-1,1.1201133E-4,-2.4716942E-2,4.75655E-2,1.07953675E-1,1.8317733E-2,9.587052E-2,2.2676906E-2],"split_indices":[409,1694,1572,1720,1572,0,0,1170,1572,0,0,861,0,0,0,2069,1720,1572,0,0,0,1734,0,0,0],"split_type":[0,0,0,0,0,0,0,0,0,0,0,0,0,0,0,0,0,0,0,0,0,0,0,0,0],"sum_hessian":[5.287749E1,3.4700516E1,1.8176973E1,3.1293247E1,3.4072688E0,1.7142738E1,1.0342355E0,2.9149923E1,2.1433241E0,1.0216801E0,2.3855886E0,2.7795862E1,1.3540615E0,1.0043749E0,1.1389492E0,2.5346718E1,2.4491453E0,2.4334414E1,1.0123045E0,1.0654E0,1.3837454E0,2.2911736E1,1.4226774E0,2.1897043E1,1.0146922E0],"tree_param":{"num_deleted":"0","num_feature":"2425","num_nodes":"25","size_leaf_vector":"1"}},{"base_weights":[-4.0255964E-2,1.0260737E-1,-8.2535017E-1,7.595634E-2,-9.385851E-1,-1.0282179E0,3.270707E-2,-1.0511458E-1,-2.3224523E-2],"categories":[],"categories_nodes":[],"categories_segments":[],"categories_sizes":[],"default_left":[0,0,0,0,0,1,0,0,0],"id":21,"left_children":[1,-1,3,-1,5,7,-1,-1,-1],"loss_changes":[4.2440907E1,0E0,5.947958E0,0E0,3.4755363E0,2.3189545E-1,0E0,0E0,0E0],"parents":[2147483647,0,0,2,2,4,4,5,5],"right_children":[2,-1,4,-1,6,8,-1,-1,-1],"split_conditions":[2.00001E0,1.0260737E-1,1.3386688E-1,7.595634E-2,8.704434E-1,2.3372768E-1,3.270707E-2,-1.0511458E-1,-2.3224523E-2],"split_indices":[1601,0,582,0,1572,129,0,0,0],"split_type":[0,0,0,0,0,0,0,0,0],"sum_hessian":[4.8684147E1,2.0514297E1,2.816985E1,1.4977974E0,2.667205E1,2.5083273E1,1.588779E0,2.4069378E1,1.0138946E0],"tree_param":{"num_deleted":"0","num_feature":"2425","num_nodes":"9","size_leaf_vector":"1"}},{"base_weights":[-7.6997117E-3,1.0164087E-1,-8.0292714E-1,6.670218E-2,-9.155712E-1,2.0560162E-2,-1.0224282E0,-1.0505273E-1,-2.3834853E-2],"categories":[],"categories_nodes":[],"categories_segments":[],"categories_sizes":[],"default_left":[0,0,1,0,0,0,1,0,0],"id":22,"left_children":[1,-1,3,-1,5,-1,7,-1,-1],"loss_changes":[3.8223885E1,0E0,4.98444E0,0E0,3.2000523E0,0E0,2.5527954E-1,0E0,0E0],"parents":[2147483647,0,0,2,2,4,4,6,6],"right_children":[2,-1,4,-1,6,-1,8,-1,-1],"split_conditions":[2.00001E0,1.0164087E-1,4.2660978E-2,6.670218E-2,4.9454954E-2,2.0560162E-2,4.9821343E-2,-1.0505273E-1,-2.3834853E-2],"split_indices":[1601,0,1682,0,1196,0,1256,0,0],"split_type":[0,0,0,0,0,0,0,0,0],"sum_hessian":[4.4932987E1,1.951853E1,2.5414457E1,1.4586254E0,2.3955832E1,2.0041077E0,2.1951725E1,2.086419E1,1.0875348E0],"tree_param":{"num_deleted":"0","num_feature":"2425","num_nodes":"9","size_leaf_vector":"1"}},{"base_weights":[-7.1195206E-3,1.0100438E-1,-8.2319474E-1,4.56738E-2,-9.582992E-1,2.270889E-2,-1.0286001E-1],"categories":[],"categories_nodes":[],"categories_segments":[],"categories_sizes":[],"default_left":[0,0,1,0,0,0,0],"id":23,"left_children":[1,-1,3,-1,5,-1,-1],"loss_changes":[3.748479E1,0E0,4.7696056E0,0E0,2.1487465E0,0E0,0E0],"parents":[2147483647,0,0,2,2,4,4],"right_children":[2,-1,4,-1,6,-1,-1],"split_conditions":[2.00001E0,1.0100438E-1,2.0010734E-2,4.56738E-2,1.4559273E-1,2.270889E-2,-1.0286001E-1],"split_indices":[1601,0,1572,0,582,0,0],"split_type":[0,0,0,0,0,0,0],"sum_hessian":[4.3156292E1,1.910543E1,2.4050861E1,2.0690243E0,2.1981836E1,1.1058103E0,2.0876026E1],"tree_param":{"num_deleted":"0","num_feature":"2425","num_nodes":"7","size_leaf_vector":"1"}},{"base_weights":[6.015995E-2,9.9884056E-2,-6.7815953E-1,8.813282E-2,-8.5334677E-1,5.8311332E-2,-9.538413E-1,8.764806E-3,-1.013576E-1],"categories":[],"categories_nodes":[],"categories_segments":[],"categories_sizes":[],"default_left":[0,0,0,0,1,0,0,0,0],"id":24,"left_children":[1,-1,3,-1,5,-1,7,-1,-1],"loss_changes":[2.8975615E1,0E0,7.1588507E0,0E0,3.6729116E0,0E0,1.3678207E0,0E0,0E0],"parents":[2147483647,0,0,2,2,4,4,6,6],"right_children":[2,-1,4,-1,6,-1,8,-1,-1],"split_conditions":[2.00001E0,9.9884056E-2,3.408332E-1,8.813282E-2,2.4718601E-2,5.8311332E-2,4.7261745E-2,8.764806E-3,-1.013576E-1],"split_indices":[1601,0,2345,0,1572,0,1117,0,0],"split_type":[0,0,0,0,0,0,0,0,0],"sum_hessian":[3.983168E1,1.738103E1,2.2450653E1,1.8602484E0,2.0590405E1,1.0323048E0,1.95581E1,1.0355592E0,1.8522541E1],"tree_param":{"num_deleted":"0","num_feature":"2425","num_nodes":"9","size_leaf_vector":"1"}},{"base_weights":[9.416662E-3,9.871849E-2,-7.645096E-1,4.679111E-2,-9.0173715E-1,3.5028644E-2,-9.9477366E-2],"categories":[],"categories_nodes":[],"categories_segments":[],"categories_sizes":[],"default_left":[0,0,0,0,1,0,0],"id":25,"left_children":[1,-1,3,-1,5,-1,-1],"loss_changes":[2.8471945E1,0E0,3.9749794E0,0E0,2.5902462E0,0E0,0E0],"parents":[2147483647,0,0,2,2,4,4],"right_children":[2,-1,4,-1,6,-1,-1],"split_conditions":[2.00001E0,9.871849E-2,1.4559273E-1,4.679111E-2,6.477909E-2,3.5028644E-2,-9.9477366E-2],"split_indices":[1601,0,582,0,1682,0,0],"split_type":[0,0,0,0,0,0,0],"sum_hessian":[3.5628098E1,1.5619312E1,2.0008785E1,1.7632799E0,1.8245506E1,1.0707681E0,1.7174738E1],"tree_param":{"num_deleted":"0","num_feature":"2425","num_nodes":"7","size_leaf_vector":"1"}},{"base_weights":[8.181575E-2,9.821907E-2,-6.715946E-1,7.8210436E-2,-8.370436E-1,6.0232997E-2,-9.7403586E-2],"categories":[],"categories_nodes":[],"categories_segments":[],"categories_sizes":[],"default_left":[0,0,0,0,1,0,0],"id":26,"left_children":[1,-1,3,-1,5,-1,-1],"loss_changes":[2.4018671E1,0E0,5.3065243E0,0E0,4.1060343E0,0E0,0E0],"parents":[2147483647,0,0,2,2,4,4],"right_children":[2,-1,4,-1,6,-1,-1],"split_conditions":[2.00001E0,9.821907E-2,3.408332E-1,7.8210436E-2,2.0010734E-2,6.0232997E-2,-9.7403586E-2],"split_indices":[1601,0,2345,0,1572,0,0],"split_type":[0,0,0,0,0,0,0],"sum_hessian":[3.343499E1,1.5093548E1,1.8341442E1,1.493327E0,1.6848114E1,1.1689698E0,1.5679145E1],"tree_param":{"num_deleted":"0","num_feature":"2425","num_nodes":"7","size_leaf_vector":"1"}},{"base_weights":[7.72563E-2,3.8699943E-1,-9.031032E-2,5.307778E-1,-6.963137E-2,6.467216E-1,-4.694057E-2,7.428564E-1,-2.3541234E-2,8.1235176E-1,6.291987E-3,8.709634E-1,2.1866372E-2,9.0185815E-1,2.2109171E-2,9.522324E-2,3.772421E-2],"categories":[],"categories_nodes":[],"categories_segments":[],"categories_sizes":[],"default_left":[1,1,0,1,0,1,0,1,0,1,0,1,0,1,0,0,0],"id":27,"left_children":[1,3,-1,5,-1,7,-1,9,-1,11,-1,13,-1,15,-1,-1,-1],"loss_changes":[1.0058998E1,4.2632084E0,0E0,2.9286141E0,0E0,1.9307852E0,0E0,8.4249973E-1,0E0,4.036703E-1,0E0,1.0587597E-1,0E0,1.5769958E-2,0E0,0E0,0E0],"parents":[2147483647,0,0,1,1,3,3,5,5,7,7,9,9,11,11,13,13],"right_children":[2,4,-1,6,-1,8,-1,10,-1,12,-1,14,-1,16,-1,-1,-1],"split_conditions":[3.7565857E-2,8.841283E-2,-9.031032E-2,1.1644041E-1,-6.963137E-2,1.5865591E-1,-4.694057E-2,1.3608548E-1,-2.3541234E-2,1.0712338E-1,6.291987E-3,2.0486231E-1,2.1866372E-2,1.1339778E-1,2.2109171E-2,9.522324E-2,3.772421E-2],"split_indices":[422,475,0,1694,0,1720,0,1117,0,893,0,981,0,1592,0,0,0],"split_type":[0,0,0,0,0,0,0,0,0,0,0,0,0,0,0,0,0],"sum_hessian":[3.0974937E1,2.399804E1,6.9768977E0,2.1636467E1,2.3615718E0,1.9705547E1,1.9309196E0,1.791145E1,1.794099E0,1.607382E1,1.8376286E0,1.4204452E1,1.8693693E0,1.3189671E1,1.0147811E0,1.1290446E1,1.8992242E0],"tree_param":{"num_deleted":"0","num_feature":"2425","num_nodes":"17","size_leaf_vector":"1"}},{"base_weights":[4.7569733E-2,9.645686E-2,-6.845874E-1,7.597857E-2,-8.4718555E-1,2.718319E-2,-9.412612E-1,7.2028087E-3,-1.0216814E-1],"categories":[],"categories_nodes":[],"categories_segments":[],"categories_sizes":[],"default_left":[0,0,0,0,1,0,0,0,0],"id":28,"left_children":[1,-1,3,-1,5,-1,7,-1,-1],"loss_changes":[2.0779057E1,0E0,4.6942167E0,0E0,1.9375734E0,0E0,1.2926712E0,0E0,0E0],"parents":[2147483647,0,0,2,2,4,4,6,6],"right_children":[2,-1,4,-1,6,-1,8,-1,-1],"split_conditions":[2.00001E0,9.645686E-2,3.408332E-1,7.597857E-2,8.157904E-2,2.718319E-2,4.756167E-2,7.2028087E-3,-1.0216814E-1],"split_indices":[1601,0,2345,0,1682,0,1196,0,0],"split_type":[0,0,0,0,0,0,0,0,0],"sum_hessian":[2.89659E1,1.2718736E1,1.6247166E1,1.2723132E0,1.4974852E1,1.0147716E0,1.396008E1,1.0341548E0,1.2925925E1],"tree_param":{"num_deleted":"0","num_feature":"2425","num_nodes":"9","size_leaf_vector":"1"}},{"base_weights":[4.1115765E-2,5.004618E-1,-8.6338615E-1,9.238159E-2,6.029445E-2,-9.059932E-2,-2.6306564E-2,-3.9666048E-1,8.097375E-2,-1.0788528E-3,-5.035421E-2],"categories":[],"categories_nodes":[],"categories_segments":[],"categories_sizes":[],"default_left":[1,0,0,0,0,0,0,0,0,0,0],"id":29,"left_children":[1,3,5,-1,7,-1,-1,9,-1,-1,-1],"loss_changes":[1.1789089E1,3.4404178E0,6.5288544E-3,0E0,3.837541E0,0E0,0E0,2.8532147E-1,0E0,0E0,0E0],"parents":[2147483647,0,0,1,1,2,2,4,4,7,7],"right_children":[2,4,6,-1,8,-1,-1,10,-1,-1,-1],"split_conditions":[4.976341E-2,1.2987348E0,3.435311E-1,9.238159E-2,8.704434E-1,-9.059932E-2,-2.6306564E-2,1.3546075E-1,8.097375E-2,-1.0788528E-3,-5.035421E-2],"split_indices":[409,582,1682,0,1572,0,0,1735,0,0,0],"split_type":[0,0,0,0,0,0,0,0,0,0,0],"sum_hessian":[2.6334684E1,1.7761374E1,8.573311E0,8.49351E0,9.267864E0,7.5297165E0,1.043595E0,6.0498433E0,3.2180207E0,1.5510534E0,4.49879E0],"tree_param":{"num_deleted":"0","num_feature":"2425","num_nodes":"11","size_leaf_vector":"1"}},{"base_weights":[1.483085E-2,9.430296E-2,-6.363929E-1,7.592543E-2,-8.250695E-1,1.9820882E-2,-9.154993E-1,-3.235541E-3,-9.871319E-2],"categories":[],"categories_nodes":[],"categories_segments":[],"categories_sizes":[],"default_left":[0,0,0,0,1,0,0,0,0],"id":30,"left_children":[1,-1,3,-1,5,-1,7,-1,-1],"loss_changes":[1.6547853E1,0E0,4.866515E0,0E0,1.5383596E0,0E0,8.3164597E-1,0E0,0E0],"parents":[2147483647,0,0,2,2,4,4,6,6],"right_children":[2,-1,4,-1,6,-1,8,-1,-1],"split_conditions":[2.00001E0,9.430296E-2,6.241662E-1,7.592543E-2,8.157904E-2,1.9820882E-2,4.807693E-2,-3.235541E-3,-9.871319E-2],"split_indices":[1601,0,2345,0,1682,0,1117,0,0],"split_type":[0,0,0,0,0,0,0,0,0],"sum_hessian":[2.5383188E1,1.0281181E1,1.5102007E1,1.4383534E0,1.3663653E1,1.012674E0,1.265098E1,1.0580592E0,1.159292E1],"tree_param":{"num_deleted":"0","num_feature":"2425","num_nodes":"9","size_leaf_vector":"1"}},{"base_weights":[5.999868E-2,9.3772925E-2,-6.1192095E-1,6.5913595E-2,-7.59351E-1,-3.1138808E-2,-9.3607926E-1,-5.9339035E-2,5.4742485E-2,-1.9785803E-2,-9.9404864E-2],"categories":[],"categories_nodes":[],"categories_segments":[],"categories_sizes":[],"default_left":[0,0,0,0,1,0,0,0,0,0,0],"id":31,"left_children":[1,-1,3,-1,5,7,9,-1,-1,-1,-1],"loss_changes":[1.4876515E1,0E0,3.1879687E0,0E0,1.6844921E0,1.5072376E0,2.6038837E-1,0E0,0E0,0E0,0E0],"parents":[2147483647,0,0,2,2,4,4,5,5,6,6],"right_children":[2,-1,4,-1,6,8,10,-1,-1,-1,-1],"split_conditions":[2.00001E0,9.3772925E-2,3.408332E-1,6.5913595E-2,1.3766642E-1,1.232588E-1,1.9277455E-1,-5.9339035E-2,5.4742485E-2,-1.9785803E-2,-9.9404864E-2],"split_indices":[1601,0,2345,0,1682,1682,232,0,0,0,0],"split_type":[0,0,0,0,0,0,0,0,0,0,0],"sum_hessian":[2.325155E1,9.910213E0,1.3341338E1,1.0258878E0,1.231545E1,2.63482E0,9.68063E0,1.3232507E0,1.3115693E0,1.0261447E0,8.654486E0],"tree_param":{"num_deleted":"0","num_feature":"2425","num_nodes":"11","size_leaf_vector":"1"}},{"base_weights":[7.737578E-3,9.290739E-2,-6.70274E-1,6.476583E-2,-8.2578933E-1,2.6879314E-2,-9.439935E-1,-2.0636266E-2,-9.9359624E-2],"categories":[],"categories_nodes":[],"categories_segments":[],"categories_sizes":[],"default_left":[0,0,0,0,1,0,0,0,0],"id":32,"left_children":[1,-1,3,-1,5,-1,7,-1,-1],"loss_changes":[1.5114265E1,0E0,3.3929439E0,0E0,1.9244223E0,0E0,2.2947216E-1,0E0,0E0],"parents":[2147483647,0,0,2,2,4,4,6,6],"right_children":[2,-1,4,-1,6,-1,8,-1,-1],"split_conditions":[2.00001E0,9.290739E-2,3.408332E-1,6.476583E-2,7.831396E-2,2.6879314E-2,9.2191055E-2,-2.0636266E-2,-9.9359624E-2],"split_indices":[1601,0,2345,0,1682,0,1720,0,0],"split_type":[0,0,0,0,0,0,0,0,0],"sum_hessian":[2.2198446E1,9.25361E0,1.2944837E1,1.0322574E0,1.191258E1,1.0368907E0,1.0875689E1,1.0104104E0,9.865278E0],"tree_param":{"num_deleted":"0","num_feature":"2425","num_nodes":"9","size_leaf_vector":"1"}},{"base_weights":[-2.7265886E-3,9.0382576E-2,-5.847155E-1,6.251298E-2,-7.530804E-1,1.5949469E-2,-8.6668485E-1,-1.2395493E-2,-9.3218885E-2],"categories":[],"categories_nodes":[],"categories_segments":[],"categories_sizes":[],"default_left":[0,0,0,0,1,0,0,0,0],"id":33,"left_children":[1,-1,3,-1,5,-1,7,-1,-1],"loss_changes":[1.1341684E1,0E0,3.1369524E0,0E0,1.3764586E0,0E0,4.0876198E-1,0E0,0E0],"parents":[2147483647,0,0,2,2,4,4,6,6],"right_children":[2,-1,4,-1,6,-1,8,-1,-1],"split_conditions":[2.00001E0,9.0382576E-2,6.241662E-1,6.251298E-2,2.0010734E-2,1.5949469E-2,5.5001255E-2,-1.2395493E-2,-9.3218885E-2],"split_indices":[1601,0,2345,0,1572,0,1117,0,0],"split_type":[0,0,0,0,0,0,0,0,0],"sum_hessian":[1.949495E1,7.405913E0,1.2089037E1,1.1454029E0,1.0943634E1,1.1668079E0,9.776826E0,1.0267826E0,8.750044E0],"tree_param":{"num_deleted":"0","num_feature":"2425","num_nodes":"9","size_leaf_vector":"1"}},{"base_weights":[1.0881273E-2,7.8728485E-1,-4.191343E-1,8.45254E-2,2.1401012E-2,-6.628024E-1,4.7988182E-1,-8.640025E-2,-3.1582144E-1,6.09318E-2,8.72006E-3,-9.916993E-2,-5.193433E-2,2.7579004E-2,-3.2536153E-2],"categories":[],"categories_nodes":[],"categories_segments":[],"categories_sizes":[],"default_left":[0,1,0,0,0,0,1,0,1,0,0,0,0,0,0],"id":34,"left_children":[1,3,5,-1,-1,7,9,-1,11,-1,-1,13,-1,-1,-1],"loss_changes":[6.924142E0,6.4608574E-2,3.2454977E0,0E0,0E0,4.9044752E-1,1.2118906E-1,0E0,1.949426E-1,0E0,0E0,4.2417285E-1,0E0,0E0,0E0],"parents":[2147483647,0,0,1,1,2,2,5,5,6,6,8,8,11,11],"right_children":[2,4,6,-1,-1,8,10,-1,12,-1,-1,14,-1,-1,-1],"split_conditions":[1.2987348E0,3.0395107E-2,8.704434E-1,8.45254E-2,2.1401012E-2,1.4527951E0,9.944425E-2,-8.640025E-2,9.066373E-2,6.09318E-2,8.72006E-3,1.06006004E-1,-5.193433E-2,2.7579004E-2,-3.2536153E-2],"split_indices":[582,1727,1572,0,0,409,1682,0,231,0,0,1196,0,0,0],"split_type":[0,0,0,0,0,0,0,0,0,0,0,0,0,0,0],"sum_hessian":[1.8750954E1,6.387442E0,1.2363511E1,5.3700004E0,1.0174419E0,9.933811E0,2.4296997E0,5.3446236E0,4.5891876E0,1.4124421E0,1.0172575E0,2.9432893E0,1.6458983E0,1.0249476E0,1.9183416E0],"tree_param":{"num_deleted":"0","num_feature":"2425","num_nodes":"15","size_leaf_vector":"1"}},{"base_weights":[1.17430106E-1,5.110673E-1,-7.701312E-2,-3.6495615E-2,6.1562747E-1,7.009886E-1,-1.2819921E-2,7.670458E-1,2.9115367E-3,8.1479865E-1,1.8585214E-2,8.6795606E-2,2.3887457E-2],"categories":[],"categories_nodes":[],"categories_segments":[],"categories_sizes":[],"default_left":[1,0,0,0,1,1,0,1,0,1,0,0,0],"id":35,"left_children":[1,3,-1,-1,5,7,-1,9,-1,11,-1,-1,-1],"loss_changes":[6.590133E0,1.405168E0,0E0,0E0,8.4454155E-1,4.5773983E-1,0E0,1.2080526E-1,0E0,6.1121464E-2,0E0,0E0,0E0],"parents":[2147483647,0,0,1,1,4,4,5,5,7,7,9,9],"right_children":[2,4,-1,-1,6,8,-1,10,-1,12,-1,-1,-1],"split_conditions":[4.976341E-2,3.9746237E-1,-7.701312E-2,-3.6495615E-2,1.9277455E-1,9.676872E-2,-1.2819921E-2,1.7355356E-1,2.9115367E-3,6.4476214E-2,1.8585214E-2,8.6795606E-2,2.3887457E-2],"split_indices":[409,475,0,0,231,861,0,1751,0,231,0,0,0],"split_type":[0,0,0,0,0,0,0,0,0,0,0,0,0],"sum_hessian":[1.6735977E1,1.1887854E1,4.848124E0,1.002057E0,1.08857975E1,9.816816E0,1.0689803E0,8.809073E0,1.007743E0,7.768821E0,1.0402528E0,6.6481357E0,1.1206851E0],"tree_param":{"num_deleted":"0","num_feature":"2425","num_nodes":"13","size_leaf_vector":"1"}},{"base_weights":[4.2127803E-2,8.8764176E-2,-5.405952E-1,5.91847E-2,-7.389653E-1,1.5553521E-2,-8.781483E-2],"categories":[],"categories_nodes":[],"categories_segments":[],"categories_sizes":[],"default_left":[0,0,1,0,0,0,0],"id":36,"left_children":[1,-1,3,-1,5,-1,-1],"loss_changes":[9.179699E0,0E0,2.9252036E0,0E0,1.3652201E0,0E0,0E0],"parents":[2147483647,0,0,2,2,4,4],"right_children":[2,-1,4,-1,6,-1,-1],"split_conditions":[2.00001E0,8.8764176E-2,2.0010734E-2,5.91847E-2,4.9454954E-2,1.5553521E-2,-8.781483E-2],"split_indices":[1601,0,1572,0,1117,0,0],"split_type":[0,0,0,0,0,0,0],"sum_hessian":[1.6657475E1,6.5827837E0,1.0074692E1,1.206061E0,8.86863E0,1.1783209E0,7.6903095E0],"tree_param":{"num_deleted":"0","num_feature":"2425","num_nodes":"7","size_leaf_vector":"1"}},{"base_weights":[6.035032E-2,4.1910675E-1,-7.296767E-2,5.3952765E-1,-4.489125E-2,6.427811E-1,-1.3042338E-2,7.0273405E-1,6.773283E-3,7.911532E-2,2.3476753E-2],"categories":[],"categories_nodes":[],"categories_segments":[],"categories_sizes":[],"default_left":[1,1,0,1,0,1,0,1,0,0,0],"id":37,"left_children":[1,3,-1,5,-1,7,-1,9,-1,-1,-1],"loss_changes":[4.9680953E0,1.4910688E0,0E0,8.4104204E-1,0E0,2.852049E-1,0E0,1.7156172E-1,0E0,0E0,0E0],"parents":[2147483647,0,0,1,1,3,3,5,5,7,7],"right_children":[2,4,-1,6,-1,8,-1,10,-1,-1,-1],"split_conditions":[4.976341E-2,8.781292E-2,-7.296767E-2,8.8046126E-2,-4.489125E-2,1.8420257E-1,-1.3042338E-2,6.4476214E-2,6.773283E-3,7.911532E-2,2.3476753E-2],"split_indices":[409,475,0,1720,0,1751,0,231,0,0,0],"split_type":[0,0,0,0,0,0,0,0,0,0,0],"sum_hessian":[1.5449662E1,1.0947729E1,4.501932E0,9.946309E0,1.00142E0,8.653222E0,1.2930872E0,7.6351585E0,1.0180639E0,5.8409333E0,1.7942252E0],"tree_param":{"num_deleted":"0","num_feature":"2425","num_nodes":"11","size_leaf_vector":"1"}},{"base_weights":[3.256105E-2,7.796638E-1,-3.987668E-1,8.5538894E-2,1.9418476E-2,5.2972443E-2,-5.5322105E-1,9.577792E-3,-6.488568E-1,-1.8075759E-2,-6.919101E-2],"categories":[],"categories_nodes":[],"categories_segments":[],"categories_sizes":[],"default_left":[0,1,1,0,0,0,0,0,1,0,0],"id":38,"left_children":[1,3,5,-1,-1,-1,7,-1,9,-1,-1],"loss_changes":[5.47003E0,1.0870147E-1,1.8435367E0,0E0,0E0,0E0,6.6784644E-1,0E0,4.8935413E-2,0E0,0E0],"parents":[2147483647,0,0,1,1,2,2,6,6,8,8],"right_children":[2,4,6,-1,-1,-1,8,-1,10,-1,-1],"split_conditions":[1.2987348E0,3.0112466E-2,4.2660978E-2,8.5538894E-2,1.9418476E-2,5.2972443E-2,8.803073E-2,9.577792E-3,3.0164618E-2,-1.8075759E-2,-6.919101E-2],"split_indices":[582,1221,1682,0,0,0,1735,0,1592,0,0],"split_type":[0,0,0,0,0,0,0,0,0,0,0],"sum_hessian":[1.5009887E1,5.198309E0,9.811578E0,4.194757E0,1.0035517E0,1.0528414E0,8.758737E0,1.1247208E0,7.6340156E0,1.0808517E0,6.553164E0],"tree_param":{"num_deleted":"0","num_feature":"2425","num_nodes":"11","size_leaf_vector":"1"}},{"base_weights":[-5.0566075E-3,8.5592836E-2,-5.434866E-1,1.23372614E-1,-7.548261E-1,-2.681521E-2,4.8339885E-2,-7.232272E-3,-8.492064E-2],"categories":[],"categories_nodes":[],"categories_segments":[],"categories_sizes":[],"default_left":[0,0,1,0,0,0,0,0,0],"id":39,"left_children":[1,-1,3,5,7,-1,-1,-1,-1],"loss_changes":[7.496223E0,0E0,1.4944236E0,5.880662E-1,4.339757E-1,0E0,0E0,0E0,0E0],"parents":[2147483647,0,0,2,2,3,3,4,4],"right_children":[2,-1,4,6,8,-1,-1,-1,-1],"split_conditions":[2.00001E0,8.5592836E-2,1.3978194E-1,1.3244052E-1,8.803073E-2,-2.681521E-2,4.8339885E-2,-7.232272E-3,-8.492064E-2],"split_indices":[1601,0,1682,1682,1735,0,0,0,0],"split_type":[0,0,0,0,0,0,0,0,0],"sum_hessian":[1.4166821E1,5.2238564E0,8.942964E0,2.252302E0,6.690662E0,1.2011986E0,1.0511032E0,1.0273981E0,5.663264E0],"tree_param":{"num_deleted":"0","num_feature":"2425","num_nodes":"9","size_leaf_vector":"1"}},{"base_weights":[-9.701568E-3,3.3327013E-1,-7.207683E-2,7.3700115E-2,1.3089997E-1,2.5738952E-1,-2.5106555E-2,-1.4215338E-2,3.6059493E-1,4.6694033E-2,3.2796132E-4],"categories":[],"categories_nodes":[],"categories_segments":[],"categories_sizes":[],"default_left":[1,0,0,0,1,0,0,0,1,0,0],"id":40,"left_children":[1,3,-1,-1,5,7,-1,-1,9,-1,-1],"loss_changes":[3.781128E0,7.596723E-1,0E0,0E0,4.6060756E-1,3.2550666E-1,0E0,0E0,2.1005684E-1,0E0,0E0],"parents":[2147483647,0,0,1,1,4,4,5,5,8,8],"right_children":[2,4,-1,-1,6,8,-1,-1,10,-1,-1],"split_conditions":[4.976341E-2,1.4741066E0,-7.207683E-2,7.3700115E-2,5.209711E-2,6.247377E-2,-2.5106555E-2,-1.4215338E-2,1.1920711E-1,4.6694033E-2,3.2796132E-4],"split_indices":[409,601,0,0,1720,1592,0,0,1751,0,0],"split_type":[0,0,0,0,0,0,0,0,0,0,0],"sum_hessian":[1.3519351E1,9.478741E0,4.0406103E0,2.28276E0,7.195981E0,5.650829E0,1.5451522E0,1.0825461E0,4.5682826E0,3.2840662E0,1.2842165E0],"tree_param":{"num_deleted":"0","num_feature":"2425","num_nodes":"11","size_leaf_vector":"1"}},{"base_weights":[7.002234E-2,8.381795E-2,-4.1960856E-1,3.9570883E-2,-6.5071994E-1,1.8582558E-2,-8.11891E-2],"categories":[],"categories_nodes":[],"categories_segments":[],"categories_sizes":[],"default_left":[0,0,1,0,0,0,0],"id":41,"left_children":[1,-1,3,-1,5,-1,-1],"loss_changes":[5.49643E0,0E0,1.9571682E0,0E0,1.149425E0,0E0,0E0],"parents":[2147483647,0,0,2,2,4,4],"right_children":[2,-1,4,-1,6,-1,-1],"split_conditions":[2.00001E0,8.381795E-2,3.2173194E-2,3.9570883E-2,8.1428505E-2,1.8582558E-2,-8.11891E-2],"split_indices":[1601,0,1592,0,1735,0,0],"split_type":[0,0,0,0,0,0,0],"sum_hessian":[1.2678645E1,4.658422E0,8.020223E0,1.6140298E0,6.406193E0,1.0101452E0,5.3960476E0],"tree_param":{"num_deleted":"0","num_feature":"2425","num_nodes":"7","size_leaf_vector":"1"}},{"base_weights":[3.1180035E-2,7.8238815E-2,-3.7491342E-1,1.8763731E-1,-5.8021784E-1,-2.3246728E-2,5.3896286E-2,-6.436276E-2,-1.4725353E-2],"categories":[],"categories_nodes":[],"categories_segments":[],"categories_sizes":[],"default_left":[0,0,1,0,1,0,0,0,0],"id":42,"left_children":[1,-1,3,5,7,-1,-1,-1,-1],"loss_changes":[4.1455774E0,0E0,1.1336267E0,5.86962E-1,9.039664E-2,0E0,0E0,0E0,0E0],"parents":[2147483647,0,0,2,2,3,3,4,4],"right_children":[2,-1,4,6,8,-1,-1,-1,-1],"split_conditions":[6.493624E-1,7.8238815E-2,1.3978194E-1,1.3472658E-1,1.5128133E-1,-2.3246728E-2,5.3896286E-2,-6.436276E-2,-1.4725353E-2],"split_indices":[582,0,1682,1682,1751,0,0,0,0],"split_type":[0,0,0,0,0,0,0,0,0],"sum_hessian":[1.1627812E1,3.7550144E0,7.8727984E0,2.1279888E0,5.7448096E0,1.1232061E0,1.0047828E0,4.5865297E0,1.1582798E0],"tree_param":{"num_deleted":"0","num_feature":"2425","num_nodes":"9","size_leaf_vector":"1"}},{"base_weights":[3.145683E-2,6.368503E-1,-2.8567195E-1,7.427654E-2,1.3069381E-2,-5.677844E-1,5.3263795E-2,-9.875727E-5,-6.639293E-2],"categories":[],"categories_nodes":[],"categories_segments":[],"categories_sizes":[],"default_left":[0,1,0,0,0,0,0,0,0],"id":43,"left_children":[1,3,5,-1,-1,7,-1,-1,-1],"loss_changes":[2.548102E0,1.4665604E-1,2.3289185E0,0E0,0E0,3.8144827E-1,0E0,0E0,0E0],"parents":[2147483647,0,0,1,1,2,2,5,5],"right_children":[2,4,6,-1,-1,8,-1,-1,-1],"split_conditions":[1.2987348E0,8.055243E-3,9.008332E-1,7.427654E-2,1.3069381E-2,8.900413E-2,5.3263795E-2,-9.875727E-5,-6.639293E-2],"split_indices":[582,1221,1592,0,0,1735,0,0,0],"split_type":[0,0,0,0,0,0,0,0,0],"sum_hessian":[1.13246E1,3.5464025E0,7.778198E0,2.5461495E0,1.0002531E0,6.011784E0,1.7664137E0,1.018392E0,4.9933925E0],"tree_param":{"num_deleted":"0","num_feature":"2425","num_nodes":"9","size_leaf_vector":"1"}},{"base_weights":[5.6758147E-2,3.656053E-1,-6.6977866E-2,4.7960582E-1,-2.644659E-2,6.980918E-2,1.14782944E-1,4.4532917E-2,-3.317464E-2],"categories":[],"categories_nodes":[],"categories_segments":[],"categories_sizes":[],"default_left":[1,1,0,0,0,0,1,0,0],"id":44,"left_children":[1,3,-1,5,-1,-1,7,-1,-1],"loss_changes":[2.9302588E0,7.7649975E-1,0E0,5.5868006E-1,0E0,0E0,7.674497E-1,0E0,0E0],"parents":[2147483647,0,0,1,1,3,3,6,6],"right_children":[2,4,-1,6,-1,-1,8,-1,-1],"split_conditions":[6.733174E-2,4.8229247E-2,-6.6977866E-2,7.2716904E-1,-2.644659E-2,6.980918E-2,2.3594844E-1,4.4532917E-2,-3.317464E-2],"split_indices":[409,1694,0,1753,0,0,1682,0,0],"split_type":[0,0,0,0,0,0,0,0,0],"sum_hessian":[1.0967548E1,8.044609E0,2.9229393E0,7.014299E0,1.0303097E0,3.8156593E0,3.1986396E0,1.8395722E0,1.3590674E0],"tree_param":{"num_deleted":"0","num_feature":"2425","num_nodes":"9","size_leaf_vector":"1"}},{"base_weights":[-1.4946647E-2,6.5371805E-1,-4.1389146E-1,7.4472286E-2,1.7628651E-2,2.280019E-2,-5.704403E-1,-3.728206E-3,-6.6664666E-2],"categories":[],"categories_nodes":[],"categories_segments":[],"categories_sizes":[],"default_left":[0,1,1,0,0,0,0,0,0],"id":45,"left_children":[1,3,5,-1,-1,-1,7,-1,-1],"loss_changes":[3.254918E0,6.719661E-2,8.956964E-1,0E0,0E0,0E0,3.039806E-1,0E0,0E0],"parents":[2147483647,0,0,1,1,2,2,6,6],"right_children":[2,4,6,-1,-1,-1,8,-1,-1],"split_conditions":[1.2987348E0,8.003845E-3,9.944425E-2,7.4472286E-2,1.7628651E-2,2.280019E-2,1.2265938E-1,-3.728206E-3,-6.6664666E-2],"split_indices":[582,1221,1682,0,0,0,1735,0,0],"split_type":[0,0,0,0,0,0,0,0,0],"sum_hessian":[1.0187383E1,3.568187E0,6.6191955E0,2.5267098E0,1.0414772E0,1.2083205E0,5.410875E0,1.0392214E0,4.3716536E0],"tree_param":{"num_deleted":"0","num_feature":"2425","num_nodes":"9","size_leaf_vector":"1"}},{"base_weights":[-4.9520335E-3,8.206191E-2,-5.9803164E-1,-1.6341144E-2,-6.436627E-2],"categories":[],"categories_nodes":[],"categories_segments":[],"categories_sizes":[],"default_left":[0,0,0,0,0],"id":46,"left_children":[1,-1,3,-1,-1],"loss_changes":[6.0359507E0,0E0,3.699684E-2,0E0,0E0],"parents":[2147483647,0,0,2,2],"right_children":[2,-1,4,-1,-1],"split_conditions":[2.00001E0,8.206191E-2,1.3278492E-1,-1.6341144E-2,-6.436627E-2],"split_indices":[1601,0,1734,0,0],"split_type":[0,0,0,0,0],"sum_hessian":[1.0325288E1,4.1561875E0,6.1691008E0,1.0214344E0,5.1476665E0],"tree_param":{"num_deleted":"0","num_feature":"2425","num_nodes":"5","size_leaf_vector":"1"}},{"base_weights":[1.1433502E-1,8.054026E-2,-3.7668192E-1,3.415884E-2,-6.1614245E-1,1.7190528E-3,-7.6147094E-2],"categories":[],"categories_nodes":[],"categories_segments":[],"categories_sizes":[],"default_left":[0,0,1,0,0,0,0],"id":47,"left_children":[1,-1,3,-1,5,-1,-1],"loss_changes":[3.9865055E0,0E0,1.4190792E0,0E0,5.309746E-1,0E0,0E0],"parents":[2147483647,0,0,2,2,4,4],"right_children":[2,-1,4,-1,6,-1,-1],"split_conditions":[2.00001E0,8.054026E-2,3.0164618E-2,3.415884E-2,8.721431E-2,1.7190528E-3,-7.6147094E-2],"split_indices":[1601,0,1592,0,1735,0,0],"split_type":[0,0,0,0,0,0,0],"sum_hessian":[9.854239E0,3.8273175E0,6.0269217E0,1.4002701E0,4.626652E0,1.0280747E0,3.598577E0],"tree_param":{"num_deleted":"0","num_feature":"2425","num_nodes":"7","size_leaf_vector":"1"}},{"base_weights":[4.6960708E-2,7.873935E-2,-4.1018206E-1,2.2459747E-2,-6.5819067E-1,-3.5265076E-3,-8.055117E-2],"categories":[],"categories_nodes":[],"categories_segments":[],"categories_sizes":[],"default_left":[0,0,1,0,0,0,0],"id":48,"left_children":[1,-1,3,-1,5,-1,-1],"loss_changes":[3.969419E0,0E0,1.299924E0,0E0,4.7785163E-1,0E0,0E0],"parents":[2147483647,0,0,2,2,4,4],"right_children":[2,-1,4,-1,6,-1,-1],"split_conditions":[2.00001E0,7.873935E-2,1.4311588E-1,2.2459747E-2,8.803073E-2,-3.5265076E-3,-8.055117E-2],"split_indices":[1601,0,1682,0,1735,0,0],"split_type":[0,0,0,0,0,0,0],"sum_hessian":[9.772886E0,3.4547744E0,6.3181114E0,1.8015163E0,4.5165954E0,1.100914E0,3.4156814E0],"tree_param":{"num_deleted":"0","num_feature":"2425","num_nodes":"7","size_leaf_vector":"1"}},{"base_weights":[4.1975893E-2,7.8239225E-2,-4.2579442E-1,1.9857695E-2,-5.8163875E-1,-1.0719026E-2,-7.6510854E-2],"categories":[],"categories_nodes":[],"categories_segments":[],"categories_sizes":[],"default_left":[0,0,0,0,1,0,0],"id":49,"left_children":[1,-1,3,-1,5,-1,-1],"loss_changes":[3.9160485E0,0E0,7.9539585E-1,0E0,4.26875E-1,0E0,0E0],"parents":[2147483647,0,0,2,2,4,4],"right_children":[2,-1,4,-1,6,-1,-1],"split_conditions":[2.00001E0,7.8239225E-2,2.253055E-1,1.9857695E-2,5.4528955E-2,-1.0719026E-2,-7.6510854E-2],"split_indices":[1601,0,582,0,1572,0,0],"split_type":[0,0,0,0,0,0,0],"sum_hessian":[9.344924E0,3.3576403E0,5.9872837E0,1.1411607E0,4.846123E0,1.7931974E0,3.0529256E0],"tree_param":{"num_deleted":"0","num_feature":"2425","num_nodes":"7","size_leaf_vector":"1"}},{"base_weights":[3.873688E-2,2.2501995E-1,-5.944639E-2,4.505466E-1,-2.640663E-2,9.539106E-3,5.5073917E-2,2.463886E-1,-3.841048E-2,5.7570194E-4,3.6234852E-2],"categories":[],"categories_nodes":[],"categories_segments":[],"categories_sizes":[],"default_left":[1,1,0,0,0,0,0,0,0,0,0],"id":50,"left_children":[1,3,-1,5,7,-1,-1,9,-1,-1,-1],"loss_changes":[1.2999444E0,4.862026E-1,0E0,1.0633999E-1,5.72759E-1,0E0,0E0,9.2480734E-2,0E0,0E0,0E0],"parents":[2147483647,0,0,1,1,3,3,4,4,7,7],"right_children":[2,4,-1,6,8,-1,-1,10,-1,-1,-1],"split_conditions":[3.7565857E-2,2.3480429E-1,-5.944639E-2,6.680833E-2,2.070873E-1,9.539106E-3,5.5073917E-2,3.1968302E-1,-3.841048E-2,5.7570194E-4,3.6234852E-2],"split_indices":[422,1682,0,1572,1735,0,0,1682,0,0,0],"split_type":[0,0,0,0,0,0,0,0,0,0,0],"sum_hessian":[8.88667E0,7.364669E0,1.522001E0,3.4648123E0,3.8998563E0,1.1919057E0,2.2729065E0,2.3890514E0,1.510805E0,1.1182294E0,1.2708219E0],"tree_param":{"num_deleted":"0","num_feature":"2425","num_nodes":"11","size_leaf_vector":"1"}},{"base_weights":[2.0822347E-3,7.613968E-2,-4.735785E-1,1.3821493E-2,-6.8308026E-2],"categories":[],"categories_nodes":[],"categories_segments":[],"categories_sizes":[],"default_left":[0,0,1,0,0],"id":51,"left_children":[1,-1,3,-1,-1],"loss_changes":[3.770454E0,0E0,9.174372E-1,0E0,0E0],"parents":[2147483647,0,0,2,2],"right_children":[2,-1,4,-1,-1],"split_conditions":[2.00001E0,7.613968E-2,3.2754768E-2,1.3821493E-2,-6.8308026E-2],"split_indices":[1601,0,1572,0,0],"split_type":[0,0,0,0,0],"sum_hessian":[8.441026E0,3.0197597E0,5.4212666E0,1.4696927E0,3.9515736E0],"tree_param":{"num_deleted":"0","num_feature":"2425","num_nodes":"5","size_leaf_vector":"1"}},{"base_weights":[2.4213988E-2,7.356544E-2,-3.899763E-1,2.5365168E-2,-5.5895126E-1,-2.8148643E-4,-6.888704E-2],"categories":[],"categories_nodes":[],"categories_segments":[],"categories_sizes":[],"default_left":[0,0,0,0,0,0,0],"id":52,"left_children":[1,-1,3,-1,5,-1,-1],"loss_changes":[2.9366531E0,0E0,8.309716E-1,0E0,3.832698E-1,0E0,0E0],"parents":[2147483647,0,0,2,2,4,4],"right_children":[2,-1,4,-1,6,-1,-1],"split_conditions":[2.00001E0,7.356544E-2,1.08841024E-1,2.5365168E-2,1.4967594E-1,-2.8148643E-4,-6.888704E-2],"split_indices":[1601,0,1170,0,981,0,0],"split_type":[0,0,0,0,0,0,0],"sum_hessian":[7.9922643E0,2.6552708E0,5.3369937E0,1.0055853E0,4.331408E0,1.0137178E0,3.3176904E0],"tree_param":{"num_deleted":"0","num_feature":"2425","num_nodes":"7","size_leaf_vector":"1"}},{"base_weights":[4.1904245E-2,6.1538626E-2,-3.051617E-1,2.3937924E-2,-4.6827322E-1,-1.3488642E-2,-5.5038817E-2],"categories":[],"categories_nodes":[],"categories_segments":[],"categories_sizes":[],"default_left":[0,0,1,0,0,0,0],"id":53,"left_children":[1,-1,3,-1,5,-1,-1],"loss_changes":[1.851482E0,0E0,6.339901E-1,0E0,5.880034E-2,0E0,0E0],"parents":[2147483647,0,0,2,2,4,4],"right_children":[2,-1,4,-1,6,-1,-1],"split_conditions":[1.2987348E0,6.1538626E-2,1.0050543E-1,2.3937924E-2,1.9706544E-1,-1.3488642E-2,-5.5038817E-2],"split_indices":[582,0,1682,0,1753,0,0],"split_type":[0,0,0,0,0,0,0],"sum_hessian":[7.358734E0,2.4829187E0,4.875816E0,1.0160835E0,3.8597322E0,1.2850558E0,2.5746763E0],"tree_param":{"num_deleted":"0","num_feature":"2425","num_nodes":"7","size_leaf_vector":"1"}},{"base_weights":[7.882578E-3,7.210583E-2,-4.5566145E-1,-6.431763E-2,1.246203E-2],"categories":[],"categories_nodes":[],"categories_segments":[],"categories_sizes":[],"default_left":[0,0,0,0,0],"id":54,"left_children":[1,-1,3,-1,-1],"loss_changes":[2.9243622E0,0E0,6.646534E-1,0E0,0E0],"parents":[2147483647,0,0,2,2],"right_children":[2,-1,4,-1,-1],"split_conditions":[2.00001E0,7.210583E-2,1.8977608E-1,-6.431763E-2,1.246203E-2],"split_indices":[1601,0,1592,0,0],"split_type":[0,0,0,0,0],"sum_hessian":[6.852072E0,2.4803886E0,4.3716826E0,3.2220945E0,1.1495883E0],"tree_param":{"num_deleted":"0","num_feature":"2425","num_nodes":"5","size_leaf_vector":"1"}},{"base_weights":[4.048123E-2,6.942615E-2,-3.2289267E-1,2.2812659E-2,-5.962723E-1,-1.1021039E-2,-7.151473E-2],"categories":[],"categories_nodes":[],"categories_segments":[],"categories_sizes":[],"default_left":[0,0,1,0,0,0,0],"id":55,"left_children":[1,-1,3,-1,5,-1,-1],"loss_changes":[2.137705E0,0E0,1.0187249E0,0E0,1.6347575E-1,0E0,0E0],"parents":[2147483647,0,0,2,2,4,4],"right_children":[2,-1,4,-1,6,-1,-1],"split_conditions":[2.00001E0,6.942615E-2,1.4311588E-1,2.2812659E-2,3.1836018E-1,-1.1021039E-2,-7.151473E-2],"split_indices":[1601,0,1682,0,231,0,0],"split_type":[0,0,0,0,0,0,0],"sum_hessian":[7.05472E0,2.1949608E0,4.8597593E0,1.6664412E0,3.1933181E0,1.0062058E0,2.1871123E0],"tree_param":{"num_deleted":"0","num_feature":"2425","num_nodes":"7","size_leaf_vector":"1"}},{"base_weights":[3.9910115E-3,6.83012E-2,-3.5284987E-1,1.7262598E-2,-6.1436075E-1,-1.3550023E-2,-7.366033E-2],"categories":[],"categories_nodes":[],"categories_segments":[],"categories_sizes":[],"default_left":[0,0,1,0,0,0,0],"id":56,"left_children":[1,-1,3,-1,5,-1,-1],"loss_changes":[2.1773703E0,0E0,9.1653377E-1,0E0,1.4355397E-1,0E0,0E0],"parents":[2147483647,0,0,2,2,4,4],"right_children":[2,-1,4,-1,6,-1,-1],"split_conditions":[2.00001E0,6.83012E-2,1.4311588E-1,1.7262598E-2,1.2805852E-1,-1.3550023E-2,-7.366033E-2],"split_indices":[1601,0,1682,0,1735,0,0],"split_type":[0,0,0,0,0,0,0],"sum_hessian":[6.99154E0,2.093615E0,4.897925E0,1.7404939E0,3.157431E0,1.0708895E0,2.0865414E0],"tree_param":{"num_deleted":"0","num_feature":"2425","num_nodes":"7","size_leaf_vector":"1"}},{"base_weights":[1.7765071E-2,5.1047813E-2,-2.7139437E-1,-5.6694932E-2,-1.5995653E-2,2.5258085E-2,-3.6403105E-2],"categories":[],"categories_nodes":[],"categories_segments":[],"categories_sizes":[],"default_left":[0,0,0,0,1,0,0],"id":57,"left_children":[1,-1,3,-1,5,-1,-1],"loss_changes":[1.1776187E0,0E0,3.8713622E-1,0E0,4.5133013E-1,0E0,0E0],"parents":[2147483647,0,0,2,2,4,4],"right_children":[2,-1,4,-1,6,-1,-1],"split_conditions":[6.493624E-1,5.1047813E-2,1.4527951E0,-5.6694932E-2,6.474528E-2,2.5258085E-2,-3.6403105E-2],"split_indices":[582,0,409,0,1753,0,0],"split_type":[0,0,0,0,0,0,0],"sum_hessian":[6.293174E0,2.0443382E0,4.248835E0,1.4041046E0,2.8447309E0,1.7604616E0,1.0842692E0],"tree_param":{"num_deleted":"0","num_feature":"2425","num_nodes":"7","size_leaf_vector":"1"}},{"base_weights":[9.015141E-2,6.566894E-2,-2.4944197E-1,3.0653322E-2,-4.8380435E-1,2.3490347E-3,-6.6532284E-2],"categories":[],"categories_nodes":[],"categories_segments":[],"categories_sizes":[],"default_left":[0,0,0,0,1,0,0],"id":58,"left_children":[1,-1,3,-1,5,-1,-1],"loss_changes":[1.493277E0,0E0,8.056849E-1,0E0,3.7815624E-1,0E0,0E0],"parents":[2147483647,0,0,2,2,4,4],"right_children":[2,-1,4,-1,6,-1,-1],"split_conditions":[2.00001E0,6.566894E-2,2.253055E-1,3.0653322E-2,4.685253E-2,2.3490347E-3,-6.6532284E-2],"split_indices":[1601,0,582,0,1592,0,0],"split_type":[0,0,0,0,0,0,0],"sum_hessian":[5.910199E0,1.8650368E0,4.045162E0,1.1082138E0,2.9369485E0,1.0033761E0,1.9335724E0],"tree_param":{"num_deleted":"0","num_feature":"2425","num_nodes":"7","size_leaf_vector":"1"}},{"base_weights":[4.969498E-2,6.503504E-2,-3.0944112E-1,-5.1462535E-2,-5.407402E-2,-2.4328344E-2,1.3407421E-2],"categories":[],"categories_nodes":[],"categories_segments":[],"categories_sizes":[],"default_left":[0,0,1,0,0,0,0],"id":59,"left_children":[1,-1,3,5,-1,-1,-1],"loss_changes":[1.6380935E0,0E0,2.6133692E-1,1.5348399E-1,0E0,0E0,0E0],"parents":[2147483647,0,0,2,2,3,3],"right_children":[2,-1,4,6,-1,-1,-1],"split_conditions":[2.00001E0,6.503504E-2,4.4381432E-2,2.0606038E-1,-5.407402E-2,-2.4328344E-2,1.3407421E-2],"split_indices":[1601,0,1751,1682,0,0,0],"split_type":[0,0,0,0,0,0,0],"sum_hessian":[5.660802E0,1.8147526E0,3.8460493E0,2.396082E0,1.4499674E0,1.0250608E0,1.371021E0],"tree_param":{"num_deleted":"0","num_feature":"2425","num_nodes":"7","size_leaf_vector":"1"}},{"base_weights":[3.895272E-2,6.350284E-2,-2.7563894E-1,2.1205168E-2,-4.7936136E-1,-1.4178096E-2,-5.92541E-2],"categories":[],"categories_nodes":[],"categories_segments":[],"categories_sizes":[],"default_left":[0,0,1,0,0,0,0],"id":60,"left_children":[1,-1,3,-1,5,-1,-1],"loss_changes":[1.4771041E0,0E0,6.224842E-1,0E0,6.898308E-2,0E0,0E0],"parents":[2147483647,0,0,2,2,4,4],"right_children":[2,-1,4,-1,6,-1,-1],"split_conditions":[2.00001E0,6.350284E-2,1.3978194E-1,2.1205168E-2,2.429028E-1,-1.4178096E-2,-5.92541E-2],"split_indices":[1601,0,1682,0,1682,0,0],"split_type":[0,0,0,0,0,0,0],"sum_hessian":[5.943593E0,1.7013545E0,4.2422385E0,1.2379141E0,3.0043244E0,1.319968E0,1.6843565E0],"tree_param":{"num_deleted":"0","num_feature":"2425","num_nodes":"7","size_leaf_vector":"1"}},{"base_weights":[-1.2029808E-2,6.2381763E-2,-3.304374E-1,1.675006E-2,-5.4216422E-2],"categories":[],"categories_nodes":[],"categories_segments":[],"categories_sizes":[],"default_left":[0,0,0,0,0],"id":61,"left_children":[1,-1,3,-1,-1],"loss_changes":[1.5885346E0,0E0,6.3939714E-1,0E0,0E0],"parents":[2147483647,0,0,2,2],"right_children":[2,-1,4,-1,-1],"split_conditions":[2.00001E0,6.2381763E-2,6.3700795E-2,1.675006E-2,-5.4216422E-2],"split_indices":[1601,0,1117,0,0],"split_type":[0,0,0,0,0],"sum_hessian":[5.8280706E0,1.6246096E0,4.203461E0,1.3164126E0,2.8870487E0],"tree_param":{"num_deleted":"0","num_feature":"2425","num_nodes":"5","size_leaf_vector":"1"}},{"base_weights":[1.7813459E-2,6.1075337E-2,-3.0722195E-1,2.3149464E-2,-5.5838704E-2],"categories":[],"categories_nodes":[],"categories_segments":[],"categories_sizes":[],"default_left":[0,0,1,0,0],"id":62,"left_children":[1,-1,3,-1,-1],"loss_changes":[1.3877908E0,0E0,7.635325E-1,0E0,0E0],"parents":[2147483647,0,0,2,2],"right_children":[2,-1,4,-1,-1],"split_conditions":[2.00001E0,6.1075337E-2,1.3978194E-1,2.3149464E-2,-5.5838704E-2],"split_indices":[1601,0,1682,0,0],"split_type":[0,0,0,0,0],"sum_hessian":[5.2272406E0,1.539606E0,3.6876345E0,1.1974901E0,2.4901443E0],"tree_param":{"num_deleted":"0","num_feature":"2425","num_nodes":"5","size_leaf_vector":"1"}},{"base_weights":[1.366557E-1,6.1231952E-2,-1.09633245E-1,3.3624522E-2,-3.9460513E-1,-4.586267E-2,-1.1898512E-2],"categories":[],"categories_nodes":[],"categories_segments":[],"categories_sizes":[],"default_left":[1,0,0,0,1,0,0],"id":63,"left_children":[1,-1,3,-1,5,-1,-1],"loss_changes":[8.011208E-1,0E0,7.6496315E-1,0E0,7.117808E-3,0E0,0E0],"parents":[2147483647,0,0,2,2,4,4],"right_children":[2,-1,4,-1,6,-1,-1],"split_conditions":[2.4718601E-2,6.1231952E-2,1.4908491E-1,3.3624522E-2,7.200052E-2,-4.586267E-2,-1.1898512E-2],"split_indices":[1572,0,1170,0,1751,0,0],"split_type":[0,0,0,0,0,0,0],"sum_hessian":[5.265349E0,1.2892348E0,3.9761138E0,1.4802036E0,2.4959104E0,1.4866142E0,1.0092961E0],"tree_param":{"num_deleted":"0","num_feature":"2425","num_nodes":"7","size_leaf_vector":"1"}},{"base_weights":[1.599029E-1,4.6530586E-2,-7.30373E-2,3.5066884E-2,-3.9313912E-2],"categories":[],"categories_nodes":[],"categories_segments":[],"categories_sizes":[],"default_left":[0,0,1,0,0],"id":64,"left_children":[1,-1,3,-1,-1],"loss_changes":[4.6574238E-1,0E0,7.220604E-1,0E0,0E0],"parents":[2147483647,0,0,2,2],"right_children":[2,-1,4,-1,-1],"split_conditions":[1.2987348E0,4.6530586E-2,5.4528955E-2,3.5066884E-2,-3.9313912E-2],"split_indices":[582,0,1572,0,0],"split_type":[0,0,0,0,0],"sum_hessian":[5.069074E0,1.7617487E0,3.3073254E0,1.3822303E0,1.925095E0],"tree_param":{"num_deleted":"0","num_feature":"2425","num_nodes":"5","size_leaf_vector":"1"}},{"base_weights":[1.6690983E-1,4.432519E-1,-4.9567785E-2,5.4729164E-2,3.0172353E-3],"categories":[],"categories_nodes":[],"categories_segments":[],"categories_sizes":[],"default_left":[1,1,0,0,0],"id":65,"left_children":[1,3,-1,-1,-1],"loss_changes":[1.3512554E0,1.9359899E-1,0E0,0E0,0E0],"parents":[2147483647,0,0,1,1],"right_children":[2,4,-1,-1,-1],"split_conditions":[4.976341E-2,9.0812474E-2,-4.9567785E-2,5.4729164E-2,3.0172353E-3],"split_indices":[409,1592,0,0,0],"split_type":[0,0,0,0,0],"sum_hessian":[5.1799016E0,3.8889754E0,1.2909261E0,2.8470106E0,1.0419648E0],"tree_param":{"num_deleted":"0","num_feature":"2425","num_nodes":"5","size_leaf_vector":"1"}},{"base_weights":[9.579874E-3,5.711819E-2,-3.176073E-1,1.875566E-2,-5.534481E-2],"categories":[],"categories_nodes":[],"categories_segments":[],"categories_sizes":[],"default_left":[0,0,1,0,0],"id":66,"left_children":[1,-1,3,-1,-1],"loss_changes":[1.1562909E0,0E0,5.7976615E-1,0E0,0E0],"parents":[2147483647,0,0,2,2],"right_children":[2,-1,4,-1,-1],"split_conditions":[2.00001E0,5.711819E-2,3.400502E-2,1.875566E-2,-5.534481E-2],"split_indices":[1601,0,1592,0,0],"split_type":[0,0,0,0,0],"sum_hessian":[4.305495E0,1.3104434E0,2.9950511E0,1.0184002E0,1.976651E0],"tree_param":{"num_deleted":"0","num_feature":"2425","num_nodes":"5","size_leaf_vector":"1"}},{"base_weights":[1.2155915E-1,5.639438E-2,-1.3404149E-1,1.749007E-2,-2.7737767E-1,5.5876873E-3,-4.4444893E-2],"categories":[],"categories_nodes":[],"categories_segments":[],"categories_sizes":[],"default_left":[0,0,1,0,0,0,0],"id":67,"left_children":[1,-1,3,-1,5,-1,-1],"loss_changes":[7.184925E-1,0E0,2.4386847E-1,0E0,2.1414548E-1,0E0,0E0],"parents":[2147483647,0,0,2,2,4,4],"right_children":[2,-1,4,-1,6,-1,-1],"split_conditions":[2.00001E0,5.639438E-2,3.400502E-2,1.749007E-2,7.85976E-2,5.5876873E-3,-4.4444893E-2],"split_indices":[1601,0,1592,0,1117,0,0],"split_type":[0,0,0,0,0,0,0],"sum_hessian":[4.6856728E0,1.2741213E0,3.4115517E0,1.0113999E0,2.400152E0,1.0237145E0,1.3764374E0],"tree_param":{"num_deleted":"0","num_feature":"2425","num_nodes":"7","size_leaf_vector":"1"}},{"base_weights":[1.5888469E-1,4.044716E-1,-4.5304872E-2,5.1973302E-2,6.5681785E-3],"categories":[],"categories_nodes":[],"categories_segments":[],"categories_sizes":[],"default_left":[1,1,0,0,0],"id":68,"left_children":[1,3,-1,-1,-1],"loss_changes":[1.0330751E0,1.4407206E-1,0E0,0E0,0E0],"parents":[2147483647,0,0,1,1],"right_children":[2,4,-1,-1,-1],"split_conditions":[3.517453E-2,5.4214105E-2,-4.5304872E-2,5.1973302E-2,6.5681785E-3],"split_indices":[409,1117,0,0,0],"split_type":[0,0,0,0,0],"sum_hessian":[4.654868E0,3.5636835E0,1.0911846E0,2.2605302E0,1.3031533E0],"tree_param":{"num_deleted":"0","num_feature":"2425","num_nodes":"5","size_leaf_vector":"1"}},{"base_weights":[4.8276372E-2,5.384196E-2,-1.7431542E-1,2.7877448E-2,-4.5955205E-1,-4.360856E-3,-6.1503347E-2],"categories":[],"categories_nodes":[],"categories_segments":[],"categories_sizes":[],"default_left":[0,0,0,0,1,0,0],"id":69,"left_children":[1,-1,3,-1,5,-1,-1],"loss_changes":[7.601091E-1,0E0,7.6848197E-1,0E0,1.94246E-1,0E0,0E0],"parents":[2147483647,0,0,2,2,4,4],"right_children":[2,-1,4,-1,6,-1,-1],"split_conditions":[2.00001E0,5.384196E-2,1.2805852E-1,2.7877448E-2,1.6808805E-1,-4.360856E-3,-6.1503347E-2],"split_indices":[1601,0,1735,0,1682,0,0],"split_type":[0,0,0,0,0,0,0],"sum_hessian":[5.106718E0,1.1517406E0,3.9549778E0,1.5366733E0,2.4183044E0,1.0064162E0,1.4118882E0],"tree_param":{"num_deleted":"0","num_feature":"2425","num_nodes":"7","size_leaf_vector":"1"}},{"base_weights":[4.9503267E-2,5.155148E-2,-2.0550779E-1,2.0562192E-2,-4.3597072E-2],"categories":[],"categories_nodes":[],"categories_segments":[],"categories_sizes":[],"default_left":[0,0,1,0,0],"id":70,"left_children":[1,-1,3,-1,-1],"loss_changes":[7.849913E-1,0E0,5.073129E-1,0E0,0E0],"parents":[2147483647,0,0,2,2],"right_children":[2,-1,4,-1,-1],"split_conditions":[1.2987348E0,5.155148E-2,1.3978194E-1,2.0562192E-2,-4.3597072E-2],"split_indices":[582,0,1682,0,0],"split_type":[0,0,0,0,0],"sum_hessian":[4.714069E0,1.3059728E0,3.408096E0,1.2629211E0,2.145175E0],"tree_param":{"num_deleted":"0","num_feature":"2425","num_nodes":"5","size_leaf_vector":"1"}},{"base_weights":[6.943015E-2,5.4037552E-2,-2.0815872E-1,1.3108395E-2,-3.8285986E-1,-6.2132273E-3,-5.1881637E-2],"categories":[],"categories_nodes":[],"categories_segments":[],"categories_sizes":[],"default_left":[0,0,1,0,0,0,0],"id":71,"left_children":[1,-1,3,-1,5,-1,-1],"loss_changes":[8.586888E-1,0E0,3.058104E-1,0E0,1.0303047E-1,0E0,0E0],"parents":[2147483647,0,0,2,2,4,4],"right_children":[2,-1,4,-1,6,-1,-1],"split_conditions":[1.2987348E0,5.4037552E-2,1.3978194E-1,1.3108395E-2,7.2716904E-1,-6.2132273E-3,-5.1881637E-2],"split_indices":[582,0,1682,0,1753,0,0],"split_type":[0,0,0,0,0,0,0],"sum_hessian":[4.7080207E0,1.3948693E0,3.3131514E0,1.2110828E0,2.1020684E0,1.0595479E0,1.0425205E0],"tree_param":{"num_deleted":"0","num_feature":"2425","num_nodes":"7","size_leaf_vector":"1"}},{"base_weights":[1.1940779E-1,3.6857486E-1,-4.708792E-2,5.0808664E-2,8.269811E-3],"categories":[],"categories_nodes":[],"categories_segments":[],"categories_sizes":[],"default_left":[1,1,0,0,0],"id":72,"left_children":[1,3,-1,-1,-1],"loss_changes":[9.9444914E-1,1.3688117E-1,0E0,0E0,0E0],"parents":[2147483647,0,0,1,1],"right_children":[2,4,-1,-1,-1],"split_conditions":[3.517453E-2,2.2458067E-2,-4.708792E-2,5.0808664E-2,8.269811E-3],"split_indices":[409,1751,0,0,0],"split_type":[0,0,0,0,0],"sum_hessian":[4.5812783E0,3.4855764E0,1.0957022E0,1.8200665E0,1.6655099E0],"tree_param":{"num_deleted":"0","num_feature":"2425","num_nodes":"5","size_leaf_vector":"1"}},{"base_weights":[2.9096728E-2,3.256287E-2,-1.6495574E-1,5.2452055E-3,-3.148199E-2],"categories":[],"categories_nodes":[],"categories_segments":[],"categories_sizes":[],"default_left":[0,0,1,0,0],"id":73,"left_children":[1,-1,3,-1,-1],"loss_changes":[3.4487104E-1,0E0,1.3778678E-1,0E0,0E0],"parents":[2147483647,0,0,2,2],"right_children":[2,-1,4,-1,-1],"split_conditions":[1.2987348E0,3.256287E-2,2.985752E-2,5.2452055E-3,-3.148199E-2],"split_indices":[582,0,1196,0,0],"split_type":[0,0,0,0,0],"sum_hessian":[4.0598326E0,1.3376786E0,2.722154E0,1.3759977E0,1.3461562E0],"tree_param":{"num_deleted":"0","num_feature":"2425","num_nodes":"5","size_leaf_vector":"1"}},{"base_weights":[8.374575E-3,5.297318E-2,-2.7647942E-1,-4.724299E-3,-3.3465713E-2],"categories":[],"categories_nodes":[],"categories_segments":[],"categories_sizes":[],"default_left":[0,0,1,0,0],"id":74,"left_children":[1,-1,3,-1,-1],"loss_changes":[9.436307E-1,0E0,3.924623E-2,0E0,0E0],"parents":[2147483647,0,0,2,2],"right_children":[2,-1,4,-1,-1],"split_conditions":[1.2987348E0,5.297318E-2,1.5008949E-1,-4.724299E-3,-3.3465713E-2],"split_indices":[582,0,1682,0,0],"split_type":[0,0,0,0,0],"sum_hessian":[4.367767E0,1.239499E0,3.128268E0,1.0000072E0,2.1282609E0],"tree_param":{"num_deleted":"0","num_feature":"2425","num_nodes":"5","size_leaf_vector":"1"}},{"base_weights":[1.9864848E-1,5.4113906E-2,-1.0566731E-2,3.249694E-2,-3.2467775E-2],"categories":[],"categories_nodes":[],"categories_segments":[],"categories_sizes":[],"default_left":[1,0,0,0,0],"id":75,"left_children":[1,-1,3,-1,-1],"loss_changes":[3.8033956E-1,0E0,5.509569E-1,0E0,0E0],"parents":[2147483647,0,0,2,2],"right_children":[2,-1,4,-1,-1],"split_conditions":[2.4718601E-2,5.4113906E-2,1.9551562E-1,3.249694E-2,-3.2467775E-2],"split_indices":[1572,0,1735,0,0],"split_type":[0,0,0,0,0],"sum_hessian":[4.2281837E0,1.0017594E0,3.2264245E0,1.5432948E0,1.6831297E0],"tree_param":{"num_deleted":"0","num_feature":"2425","num_nodes":"5","size_leaf_vector":"1"}},{"base_weights":[-2.1910403E-2,2.0406943E-2,-1.6782963E-1,9.857245E-3,-3.219987E-2],"categories":[],"categories_nodes":[],"categories_segments":[],"categories_sizes":[],"default_left":[1,0,0,0,0],"id":76,"left_children":[1,-1,3,-1,-1],"loss_changes":[2.0256664E-1,0E0,1.8166438E-1,0E0,0E0],"parents":[2147483647,0,0,2,2],"right_children":[2,-1,4,-1,-1],"split_conditions":[1.852204E-2,2.0406943E-2,2.5151774E-1,9.857245E-3,-3.219987E-2],"split_indices":[1592,0,1735,0,0],"split_type":[0,0,0,0,0],"sum_hessian":[4.1044354E0,1.4540663E0,2.6503692E0,1.1037409E0,1.5466284E0],"tree_param":{"num_deleted":"0","num_feature":"2425","num_nodes":"5","size_leaf_vector":"1"}},{"base_weights":[-6.936713E-2,4.6941344E-2,-3.50052E-1,-8.645902E-3,-4.2281944E-2],"categories":[],"categories_nodes":[],"categories_segments":[],"categories_sizes":[],"default_left":[0,0,0,0,0],"id":77,"left_children":[1,-1,3,-1,-1],"loss_changes":[9.0387976E-1,0E0,3.6103874E-2,0E0,0E0],"parents":[2147483647,0,0,2,2],"right_children":[2,-1,4,-1,-1],"split_conditions":[1.2987348E0,4.6941344E-2,7.2716904E-1,-8.645902E-3,-4.2281944E-2],"split_indices":[582,0,1753,0,0],"split_type":[0,0,0,0,0],"sum_hessian":[3.8903832E0,1.1022346E0,2.7881486E0,1.076562E0,1.7115865E0],"tree_param":{"num_deleted":"0","num_feature":"2425","num_nodes":"5","size_leaf_vector":"1"}},{"base_weights":[-8.168847E-2,2.1494275E-2,-2.2448231E-1,-3.2733638E-2,9.2707814E-5],"categories":[],"categories_nodes":[],"categories_segments":[],"categories_sizes":[],"default_left":[0,0,0,0,0],"id":78,"left_children":[1,-1,3,-1,-1],"loss_changes":[2.4702832E-1,0E0,8.508964E-2,0E0,0E0],"parents":[2147483647,0,0,2,2],"right_children":[2,-1,4,-1,-1],"split_conditions":[1.5329696E-1,2.1494275E-2,1.8334483E-1,-3.2733638E-2,9.2707814E-5],"split_indices":[1170,0,1572,0,0],"split_type":[0,0,0,0,0],"sum_hessian":[3.692895E0,1.0358393E0,2.6570556E0,1.5140227E0,1.1430329E0],"tree_param":{"num_deleted":"0","num_feature":"2425","num_nodes":"5","size_leaf_vector":"1"}},{"base_weights":[-2.0364271E-2,5.059392E-2,-2.70445E-1,1.7046975E-2,-4.7083255E-2],"categories":[],"categories_nodes":[],"categories_segments":[],"categories_sizes":[],"default_left":[0,0,1,0,0],"id":79,"left_children":[1,-1,3,-1,-1],"loss_changes":[8.1497043E-1,0E0,4.4643438E-1,0E0,0E0],"parents":[2147483647,0,0,2,2],"right_children":[2,-1,4,-1,-1],"split_conditions":[2.00001E0,5.059392E-2,1.4311588E-1,1.7046975E-2,-4.7083255E-2],"split_indices":[1601,0,1682,0,0],"split_type":[0,0,0,0,0],"sum_hessian":[4.1523333E0,1.0079547E0,3.1443787E0,1.0291747E0,2.115204E0],"tree_param":{"num_deleted":"0","num_feature":"2425","num_nodes":"5","size_leaf_vector":"1"}},{"base_weights":[-1.4371179E-2,2.5829384E-2,-1.6605487E-1,-2.562143E-2,4.1122357E-3],"categories":[],"categories_nodes":[],"categories_segments":[],"categories_sizes":[],"default_left":[0,0,1,0,0],"id":80,"left_children":[1,-1,3,-1,-1],"loss_changes":[2.5574696E-1,0E0,8.367564E-2,0E0,0E0],"parents":[2147483647,0,0,2,2],"right_children":[2,-1,4,-1,-1],"split_conditions":[1.5387765E-1,2.5829384E-2,3.5571076E-2,-2.562143E-2,4.1122357E-3],"split_indices":[1170,0,1751,0,0],"split_type":[0,0,0,0,0],"sum_hessian":[4.146566E0,1.23096E0,2.915606E0,1.8666054E0,1.0490007E0],"tree_param":{"num_deleted":"0","num_feature":"2425","num_nodes":"5","size_leaf_vector":"1"}},{"base_weights":[-6.230412E-3,2.9447315E-2,-2.4773513E-1,6.6286856E-3,-4.5711227E-2],"categories":[],"categories_nodes":[],"categories_segments":[],"categories_sizes":[],"default_left":[0,0,1,0,0],"id":81,"left_children":[1,-1,3,-1,-1],"loss_changes":[4.444165E-1,0E0,2.525246E-1,0E0,0E0],"parents":[2147483647,0,0,2,2],"right_children":[2,-1,4,-1,-1],"split_conditions":[1.4068675E-1,2.9447315E-2,1.9924198E-1,6.6286856E-3,-4.5711227E-2],"split_indices":[1735,0,1682,0,0],"split_type":[0,0,0,0,0],"sum_hessian":[4.1150975E0,1.7352134E0,2.379884E0,1.2254196E0,1.1544644E0],"tree_param":{"num_deleted":"0","num_feature":"2425","num_nodes":"5","size_leaf_vector":"1"}},{"base_weights":[-9.312455E-2,6.115857E-3,-2.0777506E-1,-2.9951504E-2,-1.3299886E-3],"categories":[],"categories_nodes":[],"categories_segments":[],"categories_sizes":[],"default_left":[1,0,1,0,0],"id":82,"left_children":[1,-1,3,-1,-1],"loss_changes":[9.8683916E-2,0E0,4.982257E-2,0E0,0E0],"parents":[2147483647,0,0,2,2],"right_children":[2,-1,4,-1,-1],"split_conditions":[2.2374626E-2,6.115857E-3,3.7357423E-2,-2.9951504E-2,-1.3299886E-3],"split_indices":[1753,0,1592,0,0],"split_type":[0,0,0,0,0],"sum_hessian":[3.8605604E0,1.8447195E0,2.015841E0,1.0027112E0,1.0131297E0],"tree_param":{"num_deleted":"0","num_feature":"2425","num_nodes":"5","size_leaf_vector":"1"}},{"base_weights":[1.0292441E-2,3.0084018E-2,-1.4925097E-1,-3.5978723E-2,1.9772058E-2],"categories":[],"categories_nodes":[],"categories_segments":[],"categories_sizes":[],"default_left":[0,0,0,0,0],"id":83,"left_children":[1,-1,3,-1,-1],"loss_changes":[2.8694028E-1,0E0,3.661865E-1,0E0,0E0],"parents":[2147483647,0,0,2,2],"right_children":[2,-1,4,-1,-1],"split_conditions":[1.2987348E0,3.0084018E-2,8.704434E-1,-3.5978723E-2,1.9772058E-2],"split_indices":[582,0,1572,0,0],"split_type":[0,0,0,0,0],"sum_hessian":[4.221438E0,1.18244E0,3.0389977E0,1.8683686E0,1.170629E0],"tree_param":{"num_deleted":"0","num_feature":"2425","num_nodes":"5","size_leaf_vector":"1"}},{"base_weights":[-2.5772354E-2,2.478415E-2,-1.8071769E-1,-3.214423E-2,8.061905E-3],"categories":[],"categories_nodes":[],"categories_segments":[],"categories_sizes":[],"default_left":[0,0,0,0,0],"id":84,"left_children":[1,-1,3,-1,-1],"loss_changes":[2.5382257E-1,0E0,1.6295287E-1,0E0,0E0],"parents":[2147483647,0,0,2,2],"right_children":[2,-1,4,-1,-1],"split_conditions":[1.2987348E0,2.478415E-2,9.008332E-1,-3.214423E-2,8.061905E-3],"split_indices":[582,0,1592,0,0],"split_type":[0,0,0,0,0],"sum_hessian":[3.930588E0,1.2043381E0,2.72625E0,1.6225476E0,1.1037022E0],"tree_param":{"num_deleted":"0","num_feature":"2425","num_nodes":"5","size_leaf_vector":"1"}},{"base_weights":[2.0147618E-2,5.04902E-2,-2.0985161E-1,1.2696211E-1,-6.322587E-2,3.3699065E-2,-1.6133277E-2],"categories":[],"categories_nodes":[],"categories_segments":[],"categories_sizes":[],"default_left":[0,0,1,1,0,0,0],"id":85,"left_children":[1,-1,3,5,-1,-1,-1],"loss_changes":[6.9817483E-1,0E0,6.9330686E-1,2.499505E-1,0E0,0E0,0E0],"parents":[2147483647,0,0,2,2,3,3],"right_children":[2,-1,4,6,-1,-1,-1],"split_conditions":[2.00001E0,5.04902E-2,2.594524E-1,5.4692984E-2,-6.322587E-2,3.3699065E-2,-1.6133277E-2],"split_indices":[1601,0,1682,1572,0,0,0],"split_type":[0,0,0,0,0,0,0],"sum_hessian":[4.3117204E0,1.0028485E0,3.3088717E0,2.2300968E0,1.078775E0,1.1924579E0,1.0376388E0],"tree_param":{"num_deleted":"0","num_feature":"2425","num_nodes":"7","size_leaf_vector":"1"}},{"base_weights":[-2.299447E-2,1.9634565E-2,-1.433446E-1,1.4212069E-2,-3.0026719E-2],"categories":[],"categories_nodes":[],"categories_segments":[],"categories_sizes":[],"default_left":[1,0,0,0,0],"id":86,"left_children":[1,-1,3,-1,-1],"loss_changes":[1.5813561E-1,0E0,2.1100324E-1,0E0,0E0],"parents":[2147483647,0,0,2,2],"right_children":[2,-1,4,-1,-1],"split_conditions":[2.4718601E-2,1.9634565E-2,8.260847E-2,1.4212069E-2,-3.0026719E-2],"split_indices":[1572,0,1735,0,0],"split_type":[0,0,0,0,0],"sum_hessian":[3.9243302E0,1.1666455E0,2.7576847E0,1.0116574E0,1.7460274E0],"tree_param":{"num_deleted":"0","num_feature":"2425","num_nodes":"5","size_leaf_vector":"1"}},{"base_weights":[8.6063415E-2,4.1757125E-2,-1.2381088E-1,1.0649272E-2,-3.6002353E-2],"categories":[],"categories_nodes":[],"categories_segments":[],"categories_sizes":[],"default_left":[0,0,1,0,0],"id":87,"left_children":[1,-1,3,-1,-1],"loss_changes":[3.8700235E-1,0E0,2.4083728E-1,0E0,0E0],"parents":[2147483647,0,0,2,2],"right_children":[2,-1,4,-1,-1],"split_conditions":[8.803073E-2,4.1757125E-2,6.8544336E-2,1.0649272E-2,-3.6002353E-2],"split_indices":[1735,0,1753,0,0],"split_type":[0,0,0,0,0],"sum_hessian":[3.8192983E0,1.0969619E0,2.7223363E0,1.6564701E0,1.0658662E0],"tree_param":{"num_deleted":"0","num_feature":"2425","num_nodes":"5","size_leaf_vector":"1"}},{"base_weights":[3.2217644E-2,2.884286E-2,-1.2232873E-1,7.589351E-3,-2.2598112E-2],"categories":[],"categories_nodes":[],"categories_segments":[],"categories_sizes":[],"default_left":[0,0,0,0,0],"id":88,"left_children":[1,-1,3,-1,-1],"loss_changes":[2.4519512E-1,0E0,9.951769E-2,0E0,0E0],"parents":[2147483647,0,0,2,2],"right_children":[2,-1,4,-1,-1],"split_conditions":[1.2987348E0,2.884286E-2,7.2716904E-1,7.589351E-3,-2.2598112E-2],"split_indices":[582,0,1753,0,0],"split_type":[0,0,0,0,0],"sum_hessian":[4.301281E0,1.2924058E0,3.0088754E0,1.1250896E0,1.8837856E0],"tree_param":{"num_deleted":"0","num_feature":"2425","num_nodes":"5","size_leaf_vector":"1"}},{"base_weights":[1.6920449E-1,5.060452E-2,-5.5225406E-2,3.4675088E-2,-3.2746185E-2],"categories":[],"categories_nodes":[],"categories_segments":[],"categories_sizes":[],"default_left":[0,0,1,0,0],"id":89,"left_children":[1,-1,3,-1,-1],"loss_changes":[3.8856572E-1,0E0,5.2549994E-1,0E0,0E0],"parents":[2147483647,0,0,2,2],"right_children":[2,-1,4,-1,-1],"split_conditions":[2.00001E0,5.060452E-2,3.1780396E-2,3.4675088E-2,-3.2746185E-2],"split_indices":[1601,0,1592,0,0],"split_type":[0,0,0,0,0],"sum_hessian":[3.7702775E0,1.0058388E0,2.7644386E0,1.005716E0,1.7587225E0],"tree_param":{"num_deleted":"0","num_feature":"2425","num_nodes":"5","size_leaf_vector":"1"}},{"base_weights":[-5.47868E-4,2.2256537E-1,-3.459445E-2,3.5041492E-2,2.2301653E-3],"categories":[],"categories_nodes":[],"categories_segments":[],"categories_sizes":[],"default_left":[1,1,0,0,0],"id":90,"left_children":[1,3,-1,-1,-1],"loss_changes":[4.3220443E-1,7.946576E-2,0E0,0E0,0E0],"parents":[2147483647,0,0,1,1],"right_children":[2,4,-1,-1,-1],"split_conditions":[2.9485628E-1,3.0164618E-2,-3.459445E-2,3.5041492E-2,2.2301653E-3],"split_indices":[1682,1592,0,0,0],"split_type":[0,0,0,0,0],"sum_hessian":[3.6093612E0,2.4089158E0,1.2004453E0,1.0126603E0,1.3962556E0],"tree_param":{"num_deleted":"0","num_feature":"2425","num_nodes":"5","size_leaf_vector":"1"}},{"base_weights":[1.0733253E-1,3.2082092E-2,-1.5502683E-2],"categories":[],"categories_nodes":[],"categories_segments":[],"categories_sizes":[],"default_left":[1,0,0],"id":91,"left_children":[1,-1,-1],"loss_changes":[3.0312523E-1,0E0,0E0],"parents":[2147483647,0,0],"right_children":[2,-1,-1],"split_conditions":[5.2748222E-2,3.2082092E-2,-1.5502683E-2],"split_indices":[1117,0,0],"split_type":[0,0,0],"sum_hessian":[3.5239477E0,1.8200759E0,1.7038717E0],"tree_param":{"num_deleted":"0","num_feature":"2425","num_nodes":"3","size_leaf_vector":"1"}},{"base_weights":[-4.205221E-2,1.629485E-1,-3.321036E-2,-6.739115E-3,2.9032627E-2],"categories":[],"categories_nodes":[],"categories_segments":[],"categories_sizes":[],"default_left":[1,0,0,0,0],"id":92,"left_children":[1,3,-1,-1,-1],"loss_changes":[3.3480003E-1,1.2039542E-1,0E0,0E0,0E0],"parents":[2147483647,0,0,1,1],"right_children":[2,4,-1,-1,-1],"split_conditions":[2.866402E-1,8.005589E-2,-3.321036E-2,-6.739115E-3,2.9032627E-2],"split_indices":[1682,1572,0,0,0],"split_type":[0,0,0,0,0],"sum_hessian":[3.7204971E0,2.4365885E0,1.2839087E0,1.035325E0,1.4012635E0],"tree_param":{"num_deleted":"0","num_feature":"2425","num_nodes":"5","size_leaf_vector":"1"}},{"base_weights":[-1.6843836E-1,-3.2342386E-2,4.348122E-3],"categories":[],"categories_nodes":[],"categories_segments":[],"categories_sizes":[],"default_left":[0,0,0],"id":93,"left_children":[1,-1,-1],"loss_changes":[1.5669373E-1,0E0,0E0],"parents":[2147483647,0,0],"right_children":[2,-1,-1],"split_conditions":[1.1631665E-1,-3.2342386E-2,4.348122E-3],"split_indices":[1572,0,0],"split_type":[0,0,0],"sum_hessian":[3.3426166E0,1.6267469E0,1.7158697E0],"tree_param":{"num_deleted":"0","num_feature":"2425","num_nodes":"3","size_leaf_vector":"1"}},{"base_weights":[-4.1480474E-2,2.5869763E-2,-2.0701338E-1,-3.5128262E-2,5.5189277E-3],"categories":[],"categories_nodes":[],"categories_segments":[],"categories_sizes":[],"default_left":[0,0,0,0,0],"id":94,"left_children":[1,-1,3,-1,-1],"loss_changes":[2.7838376E-1,0E0,1.5072246E-1,0E0,0E0],"parents":[2147483647,0,0,2,2],"right_children":[2,-1,4,-1,-1],"split_conditions":[1.2987348E0,2.5869763E-2,2.1150777E-1,-3.5128262E-2,5.5189277E-3],"split_indices":[582,0,1572,0,0],"split_type":[0,0,0,0,0],"sum_hessian":[3.5247102E0,1.0527791E0,2.471931E0,1.3754134E0,1.0965176E0],"tree_param":{"num_deleted":"0","num_feature":"2425","num_nodes":"5","size_leaf_vector":"1"}},{"base_weights":[-1.08674355E-1,7.6120414E-2,-3.4213703E-2,-6.886769E-3,1.9933663E-2],"categories":[],"categories_nodes":[],"categories_segments":[],"categories_sizes":[],"default_left":[1,0,0,0,0],"id":95,"left_children":[1,3,-1,-1,-1],"loss_changes":[2.1354143E-1,7.1678855E-2,0E0,0E0,0E0],"parents":[2147483647,0,0,1,1],"right_children":[2,4,-1,-1,-1],"split_conditions":[3.0112725E-1,9.776188E-2,-3.4213703E-2,-6.886769E-3,1.9933663E-2],"split_indices":[1682,1592,0,0,0],"split_type":[0,0,0,0,0],"sum_hessian":[3.3459933E0,2.2438498E0,1.1021436E0,1.2334894E0,1.0103602E0],"tree_param":{"num_deleted":"0","num_feature":"2425","num_nodes":"5","size_leaf_vector":"1"}},{"base_weights":[4.6609215E-2,2.5313918E-2,-1.6961912E-2],"categories":[],"categories_nodes":[],"categories_segments":[],"categories_sizes":[],"default_left":[0,0,0],"id":96,"left_children":[1,-1,-1],"loss_changes":[2.3436144E-1,0E0,0E0],"parents":[2147483647,0,0],"right_children":[2,-1,-1],"split_conditions":[7.2716904E-1,2.5313918E-2,-1.6961912E-2],"split_indices":[1753,0,0],"split_type":[0,0,0],"sum_hessian":[3.2864835E0,1.5936294E0,1.6928543E0],"tree_param":{"num_deleted":"0","num_feature":"2425","num_nodes":"3","size_leaf_vector":"1"}},{"base_weights":[-2.6372887E-2,1.7016405E-1,-2.5183579E-2,-4.32952E-4,2.59778E-2],"categories":[],"categories_nodes":[],"categories_segments":[],"categories_sizes":[],"default_left":[0,0,0,0,0],"id":97,"left_children":[1,3,-1,-1,-1],"loss_changes":[2.4438699E-1,4.8453107E-2,0E0,0E0,0E0],"parents":[2147483647,0,0,1,1],"right_children":[2,4,-1,-1,-1],"split_conditions":[7.2716904E-1,1.17254056E-1,-2.5183579E-2,-4.32952E-4,2.59778E-2],"split_indices":[1753,1753,0,0,0],"split_type":[0,0,0,0,0],"sum_hessian":[3.5480807E0,2.026682E0,1.5213988E0,1.010586E0,1.0160958E0],"tree_param":{"num_deleted":"0","num_feature":"2425","num_nodes":"5","size_leaf_vector":"1"}},{"base_weights":[2.6078142E-2,-1.8055327E-2,2.5864596E-2],"categories":[],"categories_nodes":[],"categories_segments":[],"categories_sizes":[],"default_left":[0,0,0],"id":98,"left_children":[1,-1,-1],"loss_changes":[2.3240541E-1,0E0,0E0],"parents":[2147483647,0,0],"right_children":[2,-1,-1],"split_conditions":[1.2556139E-1,-1.8055327E-2,2.5864596E-2],"split_indices":[1572,0,0],"split_type":[0,0,0],"sum_hessian":[2.8643818E0,1.6351976E0,1.2291843E0],"tree_param":{"num_deleted":"0","num_feature":"2425","num_nodes":"3","size_leaf_vector":"1"}},{"base_weights":[1.8013665E-1,-6.58428E-3,3.8432907E-2,1.4324941E-2,-1.6793622E-2],"categories":[],"categories_nodes":[],"categories_segments":[],"categories_sizes":[],"default_left":[0,1,0,0,0],"id":99,"left_children":[1,3,-1,-1,-1],"loss_changes":[1.7110136E-1,1.03658706E-1,0E0,0E0,0E0],"parents":[2147483647,0,0,1,1],"right_children":[2,4,-1,-1,-1],"split_conditions":[3.2018512E-1,2.2458067E-2,3.8432907E-2,1.4324941E-2,-1.6793622E-2],"split_indices":[1682,1751,0,0,0],"split_type":[0,0,0,0,0],"sum_hessian":[3.421298E0,2.2926085E0,1.1286896E0,1.2469063E0,1.0457021E0],"tree_param":{"num_deleted":"0","num_feature":"2425","num_nodes":"5","size_leaf_vector":"1"}},{"base_weights":[1.9030824E-1,3.4752313E-2,-2.4874634E-3],"categories":[],"categories_nodes":[],"categories_segments":[],"categories_sizes":[],"default_left":[0,0,0],"id":100,"left_children":[1,-1,-1],"loss_changes":[1.459811E-1,0E0,0E0],"parents":[2147483647,0,0],"right_children":[2,-1,-1],"split_conditions":[1.9551562E-1,3.4752313E-2,-2.4874634E-3],"split_indices":[1735,0,0],"split_type":[0,0,0],"sum_hessian":[3.0596163E0,1.4125671E0,1.6470492E0],"tree_param":{"num_deleted":"0","num_feature":"2425","num_nodes":"3","size_leaf_vector":"1"}},{"base_weights":[1.3618375E-1,4.3470524E-2,-7.3493354E-2,1.3887784E-2,-2.886875E-2],"categories":[],"categories_nodes":[],"categories_segments":[],"categories_sizes":[],"default_left":[1,0,0,0,0],"id":101,"left_children":[1,-1,3,-1,-1],"loss_changes":[3.1711957E-1,0E0,2.0149028E-1,0E0,0E0],"parents":[2147483647,0,0,2,2],"right_children":[2,-1,4,-1,-1],"split_conditions":[3.2754768E-2,4.3470524E-2,2.070873E-1,1.3887784E-2,-2.886875E-2],"split_indices":[1572,0,1735,0,0],"split_type":[0,0,0,0,0],"sum_hessian":[3.5559576E0,1.024353E0,2.5316045E0,1.4526501E0,1.0789545E0],"tree_param":{"num_deleted":"0","num_feature":"2425","num_nodes":"5","size_leaf_vector":"1"}},{"base_weights":[1.0044847E-2,1.9834797E-1,-2.3612976E-2,2.6022041E-2,3.1827036E-3],"categories":[],"categories_nodes":[],"categories_segments":[],"categories_sizes":[],"default_left":[1,1,0,0,0],"id":102,"left_children":[1,3,-1,-1,-1],"loss_changes":[2.6521248E-1,2.4818376E-2,0E0,0E0,0E0],"parents":[2147483647,0,0,1,1],"right_children":[2,4,-1,-1,-1],"split_conditions":[2.505225E-1,4.9889054E-2,-2.3612976E-2,2.6022041E-2,3.1827036E-3],"split_indices":[1682,1196,0,0,0],"split_type":[0,0,0,0,0],"sum_hessian":[3.7109158E0,2.2126794E0,1.4982365E0,1.2030032E0,1.0096762E0],"tree_param":{"num_deleted":"0","num_feature":"2425","num_nodes":"5","size_leaf_vector":"1"}},{"base_weights":[1.247269E-2,1.9391453E-1,-2.9008284E-2,2.9637322E-2,-5.545598E-4],"categories":[],"categories_nodes":[],"categories_segments":[],"categories_sizes":[],"default_left":[1,1,0,0,0],"id":103,"left_children":[1,3,-1,-1,-1],"loss_changes":[3.1353438E-1,7.376574E-2,0E0,0E0,0E0],"parents":[2147483647,0,0,1,1],"right_children":[2,4,-1,-1,-1],"split_conditions":[3.043473E-1,4.6347663E-2,-2.9008284E-2,2.9637322E-2,-5.545598E-4],"split_indices":[1682,1117,0,0,0],"split_type":[0,0,0,0,0],"sum_hessian":[3.686717E0,2.5290997E0,1.1576173E0,1.3498379E0,1.1792617E0],"tree_param":{"num_deleted":"0","num_feature":"2425","num_nodes":"5","size_leaf_vector":"1"}},{"base_weights":[1.1579593E-1,-1.8201988E-2,2.7677838E-2,1.280261E-2,-1.4962599E-2],"categories":[],"categories_nodes":[],"categories_segments":[],"categories_sizes":[],"default_left":[0,0,0,0,0],"id":104,"left_children":[1,3,-1,-1,-1],"loss_changes":[9.786545E-2,8.2320735E-2,0E0,0E0,0E0],"parents":[2147483647,0,0,1,1],"right_children":[2,4,-1,-1,-1],"split_conditions":[1.6477296E-1,2.070873E-1,2.7677838E-2,1.280261E-2,-1.4962599E-2],"split_indices":[1572,1735,0,0,0],"split_type":[0,0,0,0,0],"sum_hessian":[3.3032854E0,2.2867672E0,1.0165182E0,1.0946577E0,1.1921096E0],"tree_param":{"num_deleted":"0","num_feature":"2425","num_nodes":"5","size_leaf_vector":"1"}},{"base_weights":[-3.0243969E-2,2.1956516E-2,-1.6799521E-1,-2.868447E-2,4.419589E-3],"categories":[],"categories_nodes":[],"categories_segments":[],"categories_sizes":[],"default_left":[0,0,0,0,0],"id":105,"left_children":[1,-1,3,-1,-1],"loss_changes":[1.9262181E-1,0E0,1.005308E-1,0E0,0E0],"parents":[2147483647,0,0,2,2],"right_children":[2,-1,4,-1,-1],"split_conditions":[6.493624E-1,2.1956516E-2,2.0401312E-1,-2.868447E-2,4.419589E-3],"split_indices":[582,0,1572,0,0],"split_type":[0,0,0,0,0],"sum_hessian":[3.5256915E0,1.0420427E0,2.4836488E0,1.3664623E0,1.1171863E0],"tree_param":{"num_deleted":"0","num_feature":"2425","num_nodes":"5","size_leaf_vector":"1"}},{"base_weights":[1.7816135E-1,3.4429077E-2,-1.2476289E-2],"categories":[],"categories_nodes":[],"categories_segments":[],"categories_sizes":[],"default_left":[1,0,0],"id":106,"left_children":[1,-1,-1],"loss_changes":[2.5355017E-1,0E0,0E0],"parents":[2147483647,0,0],"right_children":[2,-1,-1],"split_conditions":[6.424545E-2,3.4429077E-2,-1.2476289E-2],"split_indices":[1117,0,0],"split_type":[0,0,0],"sum_hessian":[3.1847398E0,1.9685773E0,1.2161626E0],"tree_param":{"num_deleted":"0","num_feature":"2425","num_nodes":"3","size_leaf_vector":"1"}},{"base_weights":[1.6886358E-1,-4.3772957E-3,2.6241145E-1,3.3195093E-2,6.1967405E-3],"categories":[],"categories_nodes":[],"categories_segments":[],"categories_sizes":[],"default_left":[0,0,1,0,0],"id":107,"left_children":[1,-1,3,-1,-1],"loss_changes":[9.3883656E-2,0E0,2.1520272E-2,0E0,0E0],"parents":[2147483647,0,0,2,2],"right_children":[2,-1,4,-1,-1],"split_conditions":[1.1739155E-1,-4.3772957E-3,6.175839E-2,3.3195093E-2,6.1967405E-3],"split_indices":[1751,0,1572,0,0],"split_type":[0,0,0,0,0],"sum_hessian":[3.1422868E0,1.1226215E0,2.0196652E0,1.0123693E0,1.0072961E0],"tree_param":{"num_deleted":"0","num_feature":"2425","num_nodes":"5","size_leaf_vector":"1"}},{"base_weights":[2.4165112E-1,4.7156354E-3,3.7526697E-2],"categories":[],"categories_nodes":[],"categories_segments":[],"categories_sizes":[],"default_left":[0,0,0],"id":108,"left_children":[1,-1,-1],"loss_changes":[9.1811985E-2,0E0,0E0],"parents":[2147483647,0,0],"right_children":[2,-1,-1],"split_conditions":[1.2950774E-1,4.7156354E-3,3.7526697E-2],"split_indices":[1592,0,0],"split_type":[0,0,0],"sum_hessian":[3.213867E0,1.8597258E0,1.3541411E0],"tree_param":{"num_deleted":"0","num_feature":"2425","num_nodes":"3","size_leaf_vector":"1"}},{"base_weights":[-9.268028E-2,1.7625103E-2,-2.201706E-1,-3.203861E-2,1.345299E-3],"categories":[],"categories_nodes":[],"categories_segments":[],"categories_sizes":[],"default_left":[1,0,1,0,0],"id":109,"left_children":[1,-1,3,-1,-1],"loss_changes":[1.9296318E-1,0E0,8.613345E-2,0E0,0E0],"parents":[2147483647,0,0,2,2],"right_children":[2,-1,4,-1,-1],"split_conditions":[1.3978194E-1,1.7625103E-2,6.776445E-2,-3.203861E-2,1.345299E-3],"split_indices":[1682,0,1117,0,0],"split_type":[0,0,0,0,0],"sum_hessian":[3.4962165E0,1.0013909E0,2.4948254E0,1.486008E0,1.0088174E0],"tree_param":{"num_deleted":"0","num_feature":"2425","num_nodes":"5","size_leaf_vector":"1"}},{"base_weights":[-6.8439986E-3,2.6587123E-2,-2.4583163E-2],"categories":[],"categories_nodes":[],"categories_segments":[],"categories_sizes":[],"default_left":[0,0,0],"id":110,"left_children":[1,-1,-1],"loss_changes":[3.6418003E-1,0E0,0E0],"parents":[2147483647,0,0],"right_children":[2,-1,-1],"split_conditions":[2.7084383E-1,2.6587123E-2,-2.4583163E-2],"split_indices":[1735,0,0],"split_type":[0,0,0],"sum_hessian":[3.5848544E0,1.6217463E0,1.9631082E0],"tree_param":{"num_deleted":"0","num_feature":"2425","num_nodes":"3","size_leaf_vector":"1"}},{"base_weights":[1.1649973E-1,3.5879206E-2,-7.567602E-2,-1.5271953E-2,4.47325E-3],"categories":[],"categories_nodes":[],"categories_segments":[],"categories_sizes":[],"default_left":[1,0,1,0,0],"id":111,"left_children":[1,-1,3,-1,-1],"loss_changes":[2.3263477E-1,0E0,3.732274E-2,0E0,0E0],"parents":[2147483647,0,0,2,2],"right_children":[2,-1,4,-1,-1],"split_conditions":[3.2173194E-2,3.5879206E-2,6.337047E-2,-1.5271953E-2,4.47325E-3],"split_indices":[1592,0,1117,0,0],"split_type":[0,0,0,0,0],"sum_hessian":[3.413034E0,1.1261725E0,2.2868614E0,1.2309145E0,1.055947E0],"tree_param":{"num_deleted":"0","num_feature":"2425","num_nodes":"5","size_leaf_vector":"1"}},{"base_weights":[-1.0271596E-2,1.704191E-2,-1.6710943E-2],"categories":[],"categories_nodes":[],"categories_segments":[],"categories_sizes":[],"default_left":[0,0,0],"id":112,"left_children":[1,-1,-1],"loss_changes":[1.5000734E-1,0E0,0E0],"parents":[2147483647,0,0],"right_children":[2,-1,-1],"split_conditions":[2.690081E-1,1.704191E-2,-1.6710943E-2],"split_indices":[1751,0,0],"split_type":[0,0,0],"sum_hessian":[3.2883697E0,1.4877543E0,1.8006154E0],"tree_param":{"num_deleted":"0","num_feature":"2425","num_nodes":"3","size_leaf_vector":"1"}},{"base_weights":[-1.2452621E-1,1.6882226E-2,-3.5173055E-2],"categories":[],"categories_nodes":[],"categories_segments":[],"categories_sizes":[],"default_left":[0,0,0],"id":113,"left_children":[1,-1,-1],"loss_changes":[3.1951123E-1,0E0,0E0],"parents":[2147483647,0,0],"right_children":[2,-1,-1],"split_conditions":[7.2716904E-1,1.6882226E-2,-3.5173055E-2],"split_indices":[1753,0,0],"split_type":[0,0,0],"sum_hessian":[2.9029431E0,1.379194E0,1.5237491E0],"tree_param":{"num_deleted":"0","num_feature":"2425","num_nodes":"3","size_leaf_vector":"1"}},{"base_weights":[-5.7175746E-3,2.6049046E-2,-2.8697157E-2],"categories":[],"categories_nodes":[],"categories_segments":[],"categories_sizes":[],"default_left":[0,0,0],"id":114,"left_children":[1,-1,-1],"loss_changes":[3.9484724E-1,0E0,0E0],"parents":[2147483647,0,0],"right_children":[2,-1,-1],"split_conditions":[7.2716904E-1,2.6049046E-2,-2.8697157E-2],"split_indices":[1753,0,0],"split_type":[0,0,0],"sum_hessian":[3.2752116E0,1.7205392E0,1.5546722E0],"tree_param":{"num_deleted":"0","num_feature":"2425","num_nodes":"3","size_leaf_vector":"1"}},{"base_weights":[2.7885055E-2,2.4868192E-2,-1.0816987E-1,-2.084269E-2,2.1318498E-3],"categories":[],"categories_nodes":[],"categories_segments":[],"categories_sizes":[],"default_left":[0,0,0,0,0],"id":115,"left_children":[1,-1,3,-1,-1],"loss_changes":[1.6628249E-1,0E0,5.0759647E-2,0E0,0E0],"parents":[2147483647,0,0,2,2],"right_children":[2,-1,4,-1,-1],"split_conditions":[1.5387765E-1,2.4868192E-2,1.0015046E-1,-2.084269E-2,2.1318498E-3],"split_indices":[1170,0,1572,0,0],"split_type":[0,0,0,0,0],"sum_hessian":[3.6398222E0,1.0721223E0,2.5677E0,1.1036077E0,1.4640924E0],"tree_param":{"num_deleted":"0","num_feature":"2425","num_nodes":"5","size_leaf_vector":"1"}},{"base_weights":[-1.5169439E-1,3.2452524E-2,-3.465669E-2,-1.1971879E-2,1.693893E-2],"categories":[],"categories_nodes":[],"categories_segments":[],"categories_sizes":[],"default_left":[1,0,0,0,0],"id":116,"left_children":[1,3,-1,-1,-1],"loss_changes":[1.5843648E-1,8.3277166E-2,0E0,0E0,0E0],"parents":[2147483647,0,0,1,1],"right_children":[2,4,-1,-1,-1],"split_conditions":[2.9644656E-1,2.2114381E-1,-3.465669E-2,-1.1971879E-2,1.693893E-2],"split_indices":[1682,1682,0,0,0],"split_type":[0,0,0,0,0],"sum_hessian":[3.1016815E0,2.0232534E0,1.0784278E0,1.0178747E0,1.0053788E0],"tree_param":{"num_deleted":"0","num_feature":"2425","num_nodes":"5","size_leaf_vector":"1"}},{"base_weights":[-1.7949086E-2,-2.2076389E-2,2.0499473E-2],"categories":[],"categories_nodes":[],"categories_segments":[],"categories_sizes":[],"default_left":[0,0,0],"id":117,"left_children":[1,-1,-1],"loss_changes":[2.1626507E-1,0E0,0E0],"parents":[2147483647,0,0],"right_children":[2,-1,-1],"split_conditions":[1.1471921E-1,-2.2076389E-2,2.0499473E-2],"split_indices":[1592,0,0],"split_type":[0,0,0],"sum_hessian":[2.7820346E0,1.4619019E0,1.3201326E0],"tree_param":{"num_deleted":"0","num_feature":"2425","num_nodes":"3","size_leaf_vector":"1"}},{"base_weights":[-1.1620686E-1,-2.4800414E-2,8.761809E-3],"categories":[],"categories_nodes":[],"categories_segments":[],"categories_sizes":[],"default_left":[1,0,0],"id":118,"left_children":[1,-1,-1],"loss_changes":[1.284661E-1,0E0,0E0],"parents":[2147483647,0,0],"right_children":[2,-1,-1],"split_conditions":[2.4384042E-2,-2.4800414E-2,8.761809E-3],"split_indices":[1751,0,0],"split_type":[0,0,0],"sum_hessian":[2.9732785E0,1.6740524E0,1.2992263E0],"tree_param":{"num_deleted":"0","num_feature":"2425","num_nodes":"3","size_leaf_vector":"1"}},{"base_weights":[-4.114019E-2,8.038435E-2,-1.7805262E-2,-9.311037E-3,2.1511335E-2],"categories":[],"categories_nodes":[],"categories_segments":[],"categories_sizes":[],"default_left":[1,0,0,0,0],"id":119,